{"Bias":{"0":0.8114847254860076,"1":0.30667073580126364,"2":-0.623689687795648,"3":0.25962096011230834,"4":-1.1216913357951626},"Weights":{"0":{"0":{"0":0.868929715872676,"1":-0.4688961455122533,"10":0.6295571764275038,"11":-0.8674013489181183,"12":-0.7374303415021208,"13":0.47381023590807786,"14":0.7013428144169439,"15":-0.2570268868068488,"16":-0.6985918759727776,"17":-0.6331913205359053,"18":0.015952635273293252,"19":0.810242622150334,"2":-0.6102163762321858,"20":-0.3703830072939235,"21":-0.09742912076174222,"22":-1.0038154240546886,"23":0.7202893154698317,"24":-1.1334366893520926,"25":0.6526120792260509,"26":-0.001072420422986651,"27":0.508578753013703,"28":0.5275807977538377,"29":-0.27564622943815437,"3":1.0068745994445627,"30":-0.2792986846522419,"31":-0.2718326364940335,"32":0.7064479506820875,"33":-0.020828882717368123,"34":-0.9104751731925411,"35":1.0986443678090763,"36":-0.5680782494582963,"37":0.6274031800286881,"38":-0.9755894650105286,"39":0.9340733054597623,"4":0.19005767998290943,"40":0.22995635853145,"41":0.007420270393993732,"42":-0.8775243385113064,"43":0.2450917081209757,"44":0.28167424542985336,"45":-0.16485427411725215,"46":0.996659443952758,"47":-0.9681405072176288,"48":-0.9893948179570901,"49":-0.6907315286721394,"5":0.31657948545792997,"50":0.0038343455305642517,"51":-1.1362865077669595,"52":-0.9921933652760392,"53":0.339570909756767,"54":0.7659120456556897,"55":-0.037780693990905626,"56":-0.09188818018127992,"57":-0.21626331369975907,"58":0.02364879299294993,"59":-0.8566881313516659,"6":0.8705899227881709,"60":-0.7924112674336997,"61":0.759410382396923,"62":1.0256605731376083,"63":0.7362150944547856,"64":-0.005629444257942658,"65":0.557560350352488,"66":-0.10642780846583458,"67":-0.927485580004273,"68":0.5231067842646563,"69":0.6633967101046793,"7":0.7413788262581266,"70":-0.795975829340495,"71":0.5055427716910312,"72":-0.21492233039338332,"73":1.0311203344828652,"74":0.48976409192175024,"8":0.27017914365062395,"9":0.20158452101199362,"size":75},"1":{"0":-0.22787621692556478,"1":-0.7547660756248662,"10":-0.49626270332956873,"11":0.060303353984191344,"12":-0.9889083529160426,"13":-1.0143144016846215,"14":0.5160057374797812,"15":0.19749931333353724,"16":0.9128397473067427,"17":-0.7232184820093385,"18":0.6474910733359779,"19":-0.04966032898953232,"2":-0.6814136173589286,"20":0.8484859767448959,"21":0.7388592181157877,"22":0.3579058198797579,"23":-0.5433478804895165,"24":0.05386089663380821,"25":-0.20218878749961883,"26":-0.16855433820612215,"27":-0.5811169774468217,"28":-0.34255134739219295,"29":-0.839162572099979,"3":0.6394622638630326,"30":-0.13298562578203718,"31":-0.8623706778160951,"32":-0.4357054353465378,"33":0.6517032380138552,"34":0.7188726462599566,"35":-0.2041431928464614,"36":0.1896975615710929,"37":-0.8673152867213966,"38":-0.626810510574663,"39":0.5928904080324713,"4":-0.363157444990387,"40":-0.9195434430982392,"41":0.34752769554734986,"42":-0.6123398541215245,"43":0.07196874904629688,"44":0.9593408001953193,"45":-0.9074532303842276,"46":-0.06045472579119217,"47":-0.13985839411603146,"48":-0.9519541001617496,"49":-0.888380382702109,"5":0.2563554795983763,"50":-0.27113864558854894,"51":0.923980224005859,"52":-0.5723532822656938,"53":0.5822473830378123,"54":0.6631629383220929,"55":-0.5798907437360755,"56":0.9490316476943262,"57":0.8667854853968942,"58":0.38959685048982196,"59":0.2845991393780326,"6":0.22896084475234166,"60":-0.12729209265419497,"61":-0.7613220618305004,"62":0.8610058900723272,"63":-0.30099124118778103,"64":0.6933329264198742,"65":-0.3843482772301402,"66":-0.8582634968108158,"67":0.9580352183599341,"68":-0.5963823358867151,"69":-0.5897317423017056,"7":-0.9998718222602012,"70":-0.7994647053437909,"71":-0.9836469618823821,"72":-0.8634235663930185,"73":-0.589889828180791,"74":0.05499435407574698,"8":-0.8081313516647839,"9":0.9029944761497866,"size":75},"10":{"0":0.3476357310708944,"1":-0.41924314096499493,"10":0.6035993530075989,"11":-0.9917380291146588,"12":0.44080751976073484,"13":-0.21209448530533775,"14":-0.42070192571794834,"15":0.1271565904721211,"16":0.3576213873714402,"17":0.10310434278389842,"18":0.5188341929380166,"19":0.26733115634632426,"2":-0.3671834467604605,"20":0.17867122409741482,"21":0.08265388958403282,"22":0.7301101718192082,"23":-0.5708511612292858,"24":-0.6701266518143254,"25":0.3271828363902701,"26":0.47667714468825345,"27":0.8253321939756448,"28":-0.7163298440504179,"29":0.16874843592638947,"3":0.1552787865840631,"30":-0.2666096987823118,"31":-0.4611694692831207,"32":-0.01125461592455833,"33":0.7280709250160222,"34":0.6394354075746934,"35":-0.6316959135715814,"36":-0.1402203436384167,"37":-0.6916525772881248,"38":0.18113528855250696,"39":0.08550614947965916,"4":-0.3481234168523214,"40":-0.42953886532181773,"41":0.06338389233069835,"42":-0.9654084902493361,"43":0.5512802514725185,"44":-0.8707614368114264,"45":0.25344096194341853,"46":0.08066164128543955,"47":0.8773436689352084,"48":0.10035401470992146,"49":0.288650776696066,"5":-0.029834894863734873,"50":-0.8783587145603806,"51":0.7187237159337114,"52":0.0704519791253394,"53":0.5928531754509114,"54":0.9736881618701744,"55":0.7842555009613336,"56":0.7829810480056161,"57":1.0866078676717392,"58":-1.0569585253456222,"59":-0.4094613483077494,"6":0.01070345164342169,"60":-0.09953978087710175,"61":0.4242951750236518,"62":1.100256965849789,"63":-0.2535990478225047,"64":0.19728202154606758,"65":-0.7182116153447062,"66":0.9610364085818034,"67":-0.5468868068483537,"68":-0.7774010437330252,"69":0.6515469832453381,"7":0.7637141026032285,"70":0.48740440076906627,"71":0.26765282143620084,"72":0.556707663197729,"73":0.5201477095858639,"74":0.25859187597277783,"8":-0.9803350932340462,"9":-1.108782616657003,"size":75},"11":{"0":0.6545994445631268,"1":-0.560613422040467,"10":0.35506027405621526,"11":-0.30328257087923866,"12":-0.38630817590868916,"13":0.9139500106814799,"14":0.6285067293313403,"15":0.21389996032593742,"16":0.9666249580370492,"17":0.612335581530198,"18":-0.06822595904416036,"19":-0.8207953123569445,"2":0.7462715536973163,"20":-0.007094332712790305,"21":-0.21716788232062698,"22":0.6627881710257278,"23":0.14552934354686087,"24":-0.20431897946104338,"25":-0.2878109073152868,"26":0.754173406170842,"27":0.5758873256630138,"28":-0.29878414258247615,"29":0.2746989349040193,"3":-0.4565178380687887,"30":0.042555619983519866,"31":0.7625720999786376,"32":0.7870827356791869,"33":-0.8054316843165378,"34":0.3061348307748645,"35":-0.2017743461409349,"36":0.45400128177739824,"37":-0.006936857203894264,"38":-0.8715555284279917,"39":-0.3507577745902899,"4":0.4132682271797849,"40":-0.3494192327646717,"41":0.9416547135837894,"42":-0.6153947569200718,"43":0.3436909085360269,"44":0.054561601611377214,"45":-0.5179027680288079,"46":0.864557023834957,"47":-0.2556700338755461,"48":0.03802301095614491,"49":1.0757170323801384,"5":0.5745585497604307,"50":0.6718509475997182,"51":-0.4211999877925966,"52":-0.43699942014832055,"53":0.7616376232184819,"54":-1.147273781548511,"55":0.03724478896450689,"56":-0.06667012543107395,"57":1.1066127506332586,"58":-0.9678652302621555,"59":1.0289162877285076,"6":0.8333365886410105,"60":0.3888406018250067,"61":0.14706808679464092,"62":-0.7271431623279533,"63":-0.010176702169866325,"64":0.5688204596087542,"65":-0.15562852870265842,"66":-0.40573992126224556,"67":0.33141636402478053,"68":0.8298532059694209,"69":-0.5048652607806635,"7":-0.3935764641254926,"70":-0.8133799249244663,"71":0.44250740073854805,"72":1.0258363597521893,"73":0.4172008423108617,"74":0.8378972746971045,"8":-0.314122135074923,"9":0.6698153630176703,"size":75},"12":{"0":0.11507553331095316,"1":0.15490096743675055,"10":0.7557585375530257,"11":0.5150456251716657,"12":-0.52342051454207,"13":-0.005404217658009601,"14":-0.14993011261330016,"15":-0.4974132511368149,"16":0.8454066591387664,"17":0.04417737357707447,"18":-0.07728873561815258,"19":-0.26541947691274775,"2":-0.0066273995178075615,"20":0.73991088595233,"21":0.731243018890959,"22":0.8447993408001959,"23":-0.0869808038575397,"24":-0.39420819727164585,"25":-0.6376732688375489,"26":-0.8739542832728053,"27":0.38167790765099047,"28":-0.6053260902737515,"29":-0.4243629261146884,"3":-1.1525345622119834,"30":0.17379985961485675,"31":-1.027436140018921,"32":0.5278255561998352,"33":0.17395062105166761,"34":-0.040393078402050635,"35":1.0716104617450486,"36":0.9658748130741295,"37":0.021071199682607372,"38":-0.12551896725363948,"39":1.077895443586536,"4":-0.1342295602282783,"40":-0.5050764488662375,"41":0.5687014374217961,"42":0.9538975188451786,"43":-0.06595599230933565,"44":0.18035889767143737,"45":-0.4806329538865325,"46":-0.5667317728202156,"47":-0.25617175817133125,"48":0.9602697836237665,"49":-0.6878261665700255,"5":-0.15949644459364598,"50":-0.6234302804651028,"51":0.6124442274239325,"52":0.24853053376873058,"53":-0.043009735404522825,"54":-0.3021979430524613,"55":0.22614581743827605,"56":-0.3794683675649281,"57":-0.7557560960722682,"58":-0.6624854274117267,"59":0.588574480422376,"6":-0.7865962706381433,"60":0.09076693014313172,"61":-0.22436964018677347,"62":-0.6448268074587239,"63":-0.5523483993041779,"64":-0.5648939481795708,"65":-0.27759025849177543,"66":-1.1010095522934678,"67":-0.967861568041017,"68":0.7886397900326555,"69":0.25802117984557627,"7":0.22618427076021586,"70":0.8741300698873875,"71":-0.7289461958677949,"72":-0.4904654072695095,"73":-0.45014313180944293,"74":-0.20930387279885276,"8":-0.3762810144352549,"9":-0.30749046296578925,"size":75},"13":{"0":-0.7646302682576981,"1":-0.2984948271126441,"10":-0.8000988799707003,"11":0.0318784142582475,"12":0.1983983886226996,"13":0.4509024323252045,"14":-0.9603961302529986,"15":-0.672570574053163,"16":-0.5364519180883209,"17":-0.02823572496719272,"18":-0.327676625873592,"19":-0.5287160863063443,"2":0.8187078463087863,"20":-0.9966161076693025,"21":0.3662538529618213,"22":0.18209418012024223,"23":-0.023971678823206354,"24":-0.11428998687704112,"25":0.4741343424787133,"26":-0.15929258095034632,"27":-0.22623676259651518,"28":-0.2886025574510945,"29":0.8010504470961632,"3":0.0729007843256935,"30":-0.8142228461561932,"31":0.1872969756157109,"32":0.6659871211890018,"33":-0.9307907345805241,"34":-0.12519486068300445,"35":0.9120706808679453,"36":-0.3618866542558065,"37":1.166481521042512,"38":1.002342600787377,"39":-0.8291280861842711,"4":0.37542893765068497,"40":0.12154362620929549,"41":-0.35387798699911555,"42":0.9252272103030491,"43":0.041580248420666925,"44":-0.6440339365825376,"45":0.588501235999634,"46":1.0638135929441215,"47":0.20001831110568571,"48":0.06431043427838995,"49":0.9151152073732729,"5":0.6247614978484445,"50":0.4238062685018463,"51":0.8383922849208033,"52":0.04116702780236189,"53":0.5869826349681084,"54":-0.5938987395855588,"55":0.6014587847529533,"56":0.17026459547715658,"57":-0.18123661000396765,"58":0.7101321451460306,"59":1.0013257240516389,"6":0.049077425458540616,"60":-0.294394360179449,"61":-0.34082644123661016,"62":0.25731437116611233,"63":-0.5491390728476818,"64":0.9941013824884778,"65":1.2090395825067901,"66":-0.3786059144871369,"67":-0.6799346903897217,"68":0.774188055055389,"69":-0.8509244056520285,"7":0.2101095614490184,"70":-1.0693551438947722,"71":-0.9073299356059448,"72":-0.391401715140232,"73":0.2078731650746174,"74":0.8291811883907595,"8":0.13231360820337534,"9":0.14784447767571024,"size":75},"14":{"0":-0.012144535660878334,"1":0.9263478499710063,"10":0.6990881069368567,"11":0.8388366344187743,"12":0.012204351939451203,"13":-0.9151701406903278,"14":-0.8047315897091583,"15":-0.8220062868129523,"16":-0.8494833216345715,"17":0.6017377239295629,"18":1.0098361156041125,"19":-0.10344431897946112,"2":-0.6188787499618515,"20":-0.7850141911069064,"21":0.22907681508835132,"22":0.2626111636707661,"23":0.2832056642353587,"24":0.9724729148228408,"25":0.6467482528153315,"26":0.47269569994201494,"27":0.8841096224860384,"28":-0.3843183690908538,"29":0.983291726432081,"3":0.5832099368266841,"30":-0.7861159092989892,"31":-0.6206170842616057,"32":-0.24229987487411103,"33":0.35803521835993524,"34":-0.06712912381359318,"35":-0.5443861201818896,"36":0.760750144962919,"37":0.9794482253486735,"38":-0.2807428205206462,"39":0.958922696615498,"4":0.5455305642872399,"40":0.8411395611438338,"41":0.8350395214697721,"42":-1.0193615527817619,"43":0.6957585375530256,"44":0.7915085299233993,"45":0.6698025452436897,"46":-0.687413556321909,"47":0.9878493606372263,"48":0.861854304635762,"49":0.10899624622333427,"5":-0.770442823572497,"50":-0.5647798089541307,"51":-0.8730729087191373,"52":0.17947508163701278,"53":0.1215796380504776,"54":-1.1520334482863863,"55":-0.2836829737235636,"56":-0.1089327677236246,"57":-0.3795159764397109,"58":0.3334891811883908,"59":-0.6362767418439278,"6":-0.24572771385845543,"60":0.16613361003448607,"61":-0.18355784783471177,"62":0.16123172704245123,"63":0.39483565782647206,"64":0.9845643482772306,"65":0.0009967345194860817,"66":0.36408581804864654,"67":-0.6097994933927426,"68":-0.17157628101443545,"69":-0.04487014374217955,"7":-0.2207916501358075,"70":-0.5038703573717457,"71":0.6747025971251575,"72":-0.7596099734488969,"73":-0.6798608355967888,"74":-0.5737852107303082,"8":0.6387206640827653,"9":0.5637739188818012,"size":75},"15":{"0":0.7637781914731282,"1":-0.2711709952085941,"10":-0.5764384899441505,"11":-0.9006439405499439,"12":0.668003173924985,"13":-0.21612353892635885,"14":0.6412726218451485,"15":-0.3160448011719107,"16":-0.23781365398113985,"17":0.5567149876400034,"18":-1.0995928830835902,"19":0.8432129886776344,"2":-0.21325663014618396,"20":-0.35441084017456603,"21":0.08806665242469539,"22":-0.9137168492690811,"23":-0.948795434430982,"24":0.7671816156498921,"25":0.7179039887691897,"26":-0.4007995849482708,"27":-0.6928049562059395,"28":0.5094924771874133,"29":-0.40213812677388794,"3":-0.9642115543076873,"30":-0.8942753379924917,"31":0.4263985106967374,"32":1.0010492263557842,"33":0.6798480178228098,"34":-0.10142399365215019,"35":0.4664186529129917,"36":0.6621832941679127,"37":0.22278328806421124,"38":-0.7797277748954741,"39":0.28028687398907415,"4":0.5539683217871627,"40":-0.12878261665700247,"41":0.5796813867610695,"42":0.5682546464430671,"43":0.3272914822840051,"44":0.4568608661152991,"45":-0.8746952726828826,"46":0.2960448011719104,"47":-0.8470827356791892,"48":-0.6769139683217872,"49":-0.9338596758934304,"5":-0.13836848048341338,"50":-1.1313888973662538,"51":0.8893435468611717,"52":0.31307229834894906,"53":0.09401715140232535,"54":-1.1135331278420366,"55":0.6272139652699367,"56":-0.5420343638416696,"57":0.5844544816431169,"58":1.0955992309335645,"59":0.6310824915311125,"6":0.35796380504776176,"60":0.4373845637379066,"61":-0.299154026917325,"62":0.3794555497909486,"63":0.26795922727133936,"64":0.27681630909146415,"65":0.7665199743644516,"66":-0.4906051820429096,"67":0.8419946897793515,"68":-0.770498977629933,"69":-0.035875728629413864,"7":0.19384014404736416,"70":-0.030892666402173093,"71":0.3855873287148658,"72":0.6281618701742601,"73":-0.7937424848170418,"74":0.8299569689016412,"8":-0.9967979979857803,"9":-0.7897671437726984,"size":75},"16":{"0":0.6984514908291879,"1":0.27270912808618414,"10":-0.9254548783837403,"11":0.13507126071962683,"12":-0.598876918851283,"13":-0.25446699423200186,"14":-0.8702963347270122,"15":-0.13086458937345527,"16":0.3426361888485365,"17":-0.3960924100466927,"18":-0.7969017609179969,"19":-0.6898995941038252,"2":0.25587755973998266,"20":-0.8459681997131262,"21":0.45180700094607457,"22":-0.12293954283272783,"23":-0.49548509170812116,"24":0.5964983062227242,"25":-0.835804315317241,"26":0.5910641804254282,"27":-0.48135685293130276,"28":-0.14306955168309587,"29":0.7223139133884707,"3":-0.5067714468825341,"30":-0.9052827539902945,"31":-0.5555626087221895,"32":0.3557481612598042,"33":0.2366386913663136,"34":0.5823059785760066,"35":-0.21749443037202115,"36":-0.577449873348186,"37":-1.0166234321115744,"38":-0.11160252693258464,"39":0.8581316568498797,"4":0.925396282845546,"40":-0.5666194647053435,"41":-0.08018005920590836,"42":0.1881698049867243,"43":-0.13302163762321867,"44":0.5382940153202922,"45":-0.8162187566759244,"46":-0.6583397930845064,"47":0.32628559221167663,"48":-0.22702291940061625,"49":-0.17424787133396438,"5":0.7014600054933313,"50":-0.3954387035737184,"51":-0.711961424604023,"52":-0.3557872249519333,"53":0.6777074495681629,"54":-0.19397991882076482,"55":-0.9493527024140139,"56":0.0600640888698994,"57":0.34575395977660417,"58":0.7949314859462265,"59":0.4444807275612659,"6":0.3996020386364332,"60":-0.5822864467299409,"61":-0.7665901669362475,"62":0.6361662648396251,"63":-0.07140049439985366,"64":-1.0616046632282472,"65":-0.839115573595386,"66":-0.34226813562425634,"67":-0.4654707480086671,"68":-0.07795770134586637,"69":0.646579790643025,"7":-0.5241407513657032,"70":-0.7098757896664329,"71":-0.027431867427594982,"72":-0.028329721976378716,"73":-1.0818988616595975,"74":0.7793798638874466,"8":-0.3546555986205634,"9":0.1498263496810815,"size":75},"17":{"0":-0.6217120883816036,"1":-0.5198492385631898,"10":-0.16229316080202633,"11":-0.7260194708090468,"12":-0.7244434949797048,"13":-1.1008502456740006,"14":0.4249482711264376,"15":-0.8064455092013313,"16":-0.876799829096347,"17":-1.1123014007995862,"18":-0.6275258644367809,"19":0.1678481398968477,"2":0.818098086489457,"20":0.2606152531510362,"21":-0.6979668568987091,"22":0.8691183202612387,"23":0.021476485488448646,"24":-0.5385955381939145,"25":0.6375188451796006,"26":-0.20046388134403523,"27":-0.43136387218848166,"28":-0.10229926450392178,"29":1.1147587511825932,"3":-0.4456367687002169,"30":-0.08886806848353561,"31":-0.04105349894711133,"32":0.6265871150852994,"33":0.40470900601214665,"34":0.3048615985595264,"35":0.32832972197637894,"36":0.7426697592089606,"37":-1.004362315744501,"38":0.47841669972838496,"39":0.7159550767540501,"4":0.5144932401501514,"40":-0.527307962279122,"41":0.5551518295846425,"42":0.10621539963988139,"43":-0.2119449446089056,"44":0.3284420300912506,"45":0.25650685140537716,"46":0.8237311929685357,"47":-0.3890237128818631,"48":-0.6669222083193466,"49":-0.9172045045319985,"5":-0.670575273903623,"50":0.8415253151036111,"51":-0.6668105105746637,"52":-0.8601312295907466,"53":-0.8016870632038332,"54":0.7560911893063142,"55":0.5990728476821192,"56":0.016603900265510882,"57":0.9390289010284729,"58":0.542404858546709,"59":-1.0260243537705618,"6":-0.3291421246986299,"60":-0.20664571062349302,"61":0.873508713034455,"62":0.7765208899197372,"63":-0.6958348338267154,"64":-0.5697231971190525,"65":-0.874076357310709,"66":0.9520206305124062,"67":0.9902114932706668,"68":0.8607489242225399,"69":-0.48850917081209827,"7":0.5713779107028409,"70":0.8388012329477825,"71":-0.3030402539139993,"72":-0.7938798181096838,"73":-0.26404675435651725,"74":1.0086873989074365,"8":-0.4353062532425916,"9":-0.6261281167027817,"size":75},"18":{"0":0.761317178868984,"1":-0.8604535050508132,"10":1.0552201910458705,"11":0.9078005310220628,"12":0.5823059785760069,"13":0.6145585497604295,"14":0.552774437696462,"15":-1.2137644581438631,"16":0.4225617236854153,"17":-0.6996307260353406,"18":0.7748673970763262,"19":0.8830732139042329,"2":0.3308890041810362,"20":-0.5416388439588609,"21":0.46943144016846217,"22":-1.1858607745597702,"23":-0.9415472884304329,"24":0.8327555162205873,"25":-1.1599670400097624,"26":0.6930332346568185,"27":-0.026245918149357672,"28":0.9594299142429886,"29":0.3601178014465776,"3":-0.5646894741660831,"30":-0.35924253059480565,"31":-0.05798516800439454,"32":-0.5067177343058558,"33":-0.5794567705313273,"34":0.15747856074709304,"35":-0.635729239783928,"36":0.9092330698568682,"37":0.6641529587694944,"38":-0.3265889461958681,"39":0.5146195867793818,"4":-0.24268257698294024,"40":0.1306637775811027,"41":-0.6357322916348783,"42":0.6369518112735373,"43":0.7216626483962527,"44":0.6492391735587637,"45":-0.3688222907193214,"46":-0.5186828211310155,"47":-0.8663893551438945,"48":0.7768956572161021,"49":0.5211371196630762,"5":1.1532328257087934,"50":-0.35790520950956806,"51":-1.0691085543382073,"52":-0.5488900418103584,"53":0.06509964293343884,"54":0.9559886471144738,"55":-0.08535782952360617,"56":-0.804836573381756,"57":-0.5067903683584094,"58":0.8925504318369091,"59":-1.1038886684774307,"6":-0.26474806970427545,"60":0.874443189794611,"61":0.491104464857936,"62":-0.12976958525345617,"63":-0.36568559831537856,"64":-0.19029755546739083,"65":0.5644135868404189,"66":-0.09216040528580605,"67":-0.473606372264779,"68":-0.25069368572038936,"69":-0.35235328226569385,"7":-0.7860487685781412,"70":1.04209906308176,"71":0.7191631824701687,"72":0.7409399700918599,"73":1.0144444105349881,"74":-0.49608020264290326,"8":0.6421832941679121,"9":0.3671565904721209,"size":75},"19":{"0":-0.07376628925443282,"1":0.6641889706106758,"10":-0.36028992584002184,"11":-0.18578142643513318,"12":-0.1580962553788874,"13":-0.39707083346049443,"14":-0.20601519821771933,"15":0.7387914670247496,"16":-0.6497518845179596,"17":0.6394549394207584,"18":-0.8632087160863057,"19":-0.4187566759239479,"2":-0.15650318918424044,"20":-0.23500839259010622,"21":0.2224475844599747,"22":0.6450550859096047,"23":-0.17055635242774767,"24":-0.8313327433088167,"25":0.08663716544083983,"26":0.6468092898342841,"27":0.48218268379772333,"28":-0.4251283303323462,"29":1.1216107669301432,"3":0.1834186834315012,"30":-1.0380114139225456,"31":-0.5669954527420888,"32":1.0213470870082704,"33":0.47776421399578783,"34":0.8299014252143919,"35":0.09410138248847924,"36":-0.35494552446058597,"37":-0.5155052339243752,"38":-0.4412012085329753,"39":0.1689278847621081,"4":0.11823480941190823,"40":-0.8326010925626389,"41":-0.8980016479995127,"42":0.3168852809228803,"43":0.3679470198675498,"44":-0.886795251319926,"45":0.5676577043977176,"46":0.1974321726126893,"47":0.8764622943815421,"48":-0.028429212317270327,"49":-0.761865291299173,"5":-0.33413861507004006,"50":0.8962547685171043,"51":-0.9731217383342994,"52":1.0245899838251884,"53":-0.07017792291024517,"54":-0.3020819727164531,"55":-0.6936191900387586,"56":-1.0107644886623743,"57":0.7764531388286996,"58":-0.7742899868770411,"59":0.4108420056764432,"6":-0.22099307229834914,"60":-0.8598583941160312,"61":-0.3126480910672322,"62":-0.6872389904477071,"63":0.8371861934263142,"64":0.8579601428266236,"65":-0.5933762627033301,"66":0.9698550370799891,"67":-0.41545457319864537,"68":0.8503415021210365,"69":-0.6458339182714308,"7":-0.5251503036591697,"70":0.9664827417828914,"71":0.7962718588824121,"72":-0.10744651631214332,"73":1.0708175908688595,"74":-0.3184411145359662,"8":0.9715109714041568,"9":0.4383385723441269,"size":75},"2":{"0":-0.0203283791619617,"1":-0.8398742637409579,"10":-0.4368462172307509,"11":-0.15246559038056584,"12":0.09132419812616356,"13":0.8256434827723025,"14":0.056868800927762544,"15":-0.3726969206823937,"16":0.30314523758659634,"17":-0.34462233344523435,"18":0.8562340159306632,"19":0.950034485915707,"2":0.17824640644550926,"20":-0.3471114230780967,"21":-1.0278151799066135,"22":-0.8918527787102892,"23":0.40455397198400783,"24":-0.5155351420636606,"25":-0.08696127201147506,"26":0.7757444990386665,"27":0.620817896053957,"28":-0.7688314462721646,"29":-0.6115103610339678,"3":0.07571275978881177,"30":-0.8840205084383691,"31":-0.6393585009308139,"32":-0.5513968321787167,"33":0.18845118564409313,"34":-0.03142674031800307,"35":0.3571349223303935,"36":0.6016663106173892,"37":-0.9930118717001863,"38":-0.3940330210272528,"39":-0.7110495315408794,"4":-0.8424970244453274,"40":0.4256221198156678,"41":0.12295968504898223,"42":-0.4835926389355158,"43":0.23647389141514313,"44":0.5239191869869074,"45":-0.16728415784173145,"46":0.9313016144291498,"47":-0.8949839777825253,"48":-0.41723563341166414,"49":0.17080599383526107,"5":-1.1584026612140261,"50":0.2473567918942838,"51":-0.19768913846247785,"52":0.5844288460951576,"53":-0.2847022919400617,"54":0.236438489944151,"55":-0.08451979125339525,"56":0.8800946073793741,"57":-0.5063032929471714,"58":-0.48793176061281196,"59":-0.4449305703909421,"6":-0.7949894711142308,"60":-0.3958934293649104,"61":1.1258949552903843,"62":-0.8337473677785578,"63":-0.44903836176641165,"64":0.9501278725547039,"65":0.12018860438856148,"66":0.44559343241676047,"67":-0.6323068941312905,"68":0.8710086367381809,"69":0.43913083285012294,"7":-0.14492812891018403,"70":0.05984984893337791,"71":-0.8355845820490119,"72":-0.8567650379955442,"73":-0.04954069643238642,"74":0.5531986449781787,"8":0.04177739799188208,"9":-1.0025794244209103,"size":75},"20":{"0":0.11241798150578332,"1":0.07246253852961823,"10":0.3762712485122227,"11":0.25968993194372414,"12":0.11874813074129538,"13":-0.8222681356242553,"14":0.14017090365306545,"15":-0.669938047425764,"16":-0.23848994415112765,"17":0.9847663808099618,"18":0.8193121127964117,"19":-0.006382030701620675,"2":-0.35275612659077715,"20":-0.05448957792901382,"21":0.7584508804589988,"22":-0.4260463270973845,"23":0.24430982390820039,"24":0.8023993652150019,"25":0.521453291421246,"26":0.30257515182958505,"27":0.5692214728232681,"28":0.7851728873561832,"29":0.3120950956755272,"3":-0.9802783288064206,"30":0.2790203558458205,"31":0.039809564500869615,"32":0.339301736503189,"33":0.47502914517654937,"34":-0.3542014831995608,"35":-0.6614337595751822,"36":-0.19299172948393198,"37":-0.2465004425183875,"38":0.12269295327616171,"39":1.0381884212775034,"4":-0.4332804345835746,"40":-0.18402417065950505,"41":0.2690621662038026,"42":0.0324716940824609,"43":-0.4519406720175781,"44":-0.41711294900357093,"45":0.4548606830042429,"46":-0.4543955809198273,"47":0.7466139713736379,"48":-1.0159892574846652,"49":0.6894296090578934,"5":-0.03332499160741002,"50":-0.8153886532181771,"51":-0.8673043000579863,"52":0.683584704123051,"53":0.9364366588335826,"54":0.46910794396801686,"55":0.5952855006561478,"56":0.05131870479445762,"57":-0.20278878139591647,"58":0.5233503219702755,"59":0.8556108279671607,"6":0.8405792413098545,"60":1.000307016205327,"61":-0.2577043977172155,"62":0.12766441846980212,"63":0.9391113010040595,"64":-0.08367137668996268,"65":0.007347025971251483,"66":-0.9061879329813539,"67":0.1327323221533859,"68":-0.5291335795159767,"69":-0.398744468520158,"7":-0.3104629657887513,"70":0.18713827936643568,"71":-0.695200659199806,"72":-0.713094271675772,"73":-0.8286031678212836,"74":-0.7646180608539078,"8":-0.8434083071382793,"9":-0.2651429792168953,"size":75},"21":{"0":0.40238105410931785,"1":0.611591540269174,"10":-0.5634015930661952,"11":-1.0525888851588496,"12":0.20612323374126373,"13":0.9913333536790063,"14":-0.6924393444624172,"15":0.796755272072511,"16":0.8553373821222573,"17":-0.19776970732749433,"18":-0.6291622669148842,"19":-0.27614551225318185,"2":0.712565691091647,"20":-0.5720175786614584,"21":0.14766624958037045,"22":1.10729880672628,"23":0.4878603473006371,"24":0.6822479934080018,"25":0.2081472212897121,"26":0.030456862086855496,"27":0.48243476668599483,"28":0.013496505630664842,"29":1.0076442762535478,"3":-0.41325418866542535,"30":0.33758537553025897,"31":0.0682778405102692,"32":0.4027826776940213,"33":-0.6263222144230475,"34":0.174159978026673,"35":0.7639265114291804,"36":0.4094222846156191,"37":0.9243098239082,"38":0.9590173039948735,"39":0.3559605700857569,"4":0.5232953886532182,"40":-0.6155400250251778,"41":-0.7879152806176952,"42":-0.984891506698812,"43":-0.5490444654683068,"44":0.041427655873287006,"45":0.8787224951933357,"46":-0.4862819299905382,"47":-0.05104647968993194,"48":-0.5606439405499444,"49":-0.2917551194799643,"5":-0.715862300485244,"50":-0.18338572344126688,"51":0.36096682638019983,"52":0.4164195684682761,"53":0.7936301767021692,"54":-0.07617542039246825,"55":-0.3291409039582512,"56":1.128423718985565,"57":0.36490188299203474,"58":-0.6273256630146177,"59":-0.15638477736747314,"6":0.5263722647785882,"60":0.9694131290627763,"61":0.35234473708304137,"62":-0.20566972869045083,"63":-0.5394622638630329,"64":-0.3690194402905364,"65":1.0144071779534292,"66":0.39415204321421016,"67":-0.39659840693380516,"68":0.19550523392437544,"69":-0.8773247474593354,"7":1.0769573046052439,"70":-0.5980132450331131,"71":0.7677303384502692,"72":1.159907223731194,"73":0.8347734000671411,"74":-0.5606744590594193,"8":0.21942625202185068,"9":0.9331339457380902,"size":75},"22":{"0":0.22760155034028112,"1":0.16702658162175354,"10":0.5906955168309589,"11":0.7372521134067812,"12":-0.4680648213141263,"13":-0.6463307596057017,"14":-0.8964824365977966,"15":0.7709591967528302,"16":0.4318094424268328,"17":0.33896114993743687,"18":-0.008250984221930671,"19":-0.9601348918118834,"2":-0.3940946684163948,"20":0.9679836420789215,"21":-0.3301272621845147,"22":-0.9049415570543551,"23":-0.7617291787469103,"24":0.8581298257393118,"25":-0.8867555772576068,"26":0.8541587572862935,"27":-0.41872127445295504,"28":-0.9155308694723354,"29":-0.3814191106906341,"3":0.7082290108951068,"30":0.6115762810144353,"31":0.5077474288155759,"32":0.011741080965605388,"33":0.6699533066805021,"34":-0.6982177190466019,"35":0.4346745200964381,"36":0.3068178350169377,"37":0.5906790368358422,"38":-0.11847346415601073,"39":0.07161107211523787,"4":-0.3872872096926784,"40":0.5826593829157388,"41":0.41776970732749424,"42":0.11176915799432359,"43":0.15918271431623274,"44":-0.6534409619434187,"45":0.9020746482741778,"46":1.0227253028962064,"47":0.2594238105410929,"48":0.19450056459242543,"49":0.04983855708487144,"5":0.019960936307870738,"50":-0.12721213415936763,"51":-0.23650624103518825,"52":0.5525119785149687,"53":-0.5164891506698814,"54":-0.5265871150853003,"55":-0.17650196844386068,"56":-0.11296975615710939,"57":0.8558116397595145,"58":1.0496127201147483,"59":-0.745986510818812,"6":-0.4485116122928558,"60":0.9048567155980095,"61":0.7752598651081889,"62":-0.9707608264412361,"63":-0.38990386669515076,"64":-0.8161174352244636,"65":0.5786101870784628,"66":-0.6887319559312729,"67":-0.4719431134983369,"68":0.23624256111331549,"69":-0.5539103366191589,"7":0.009754325998718052,"70":-0.7158519241920234,"71":-0.805229041413617,"72":0.9852583391827134,"73":0.7366960661641285,"74":-0.2741422772911769,"8":-0.7613916440321056,"9":0.6955943479720452,"size":75},"23":{"0":-0.8277602465895558,"1":-0.9836640522476894,"10":-0.28268990142521433,"11":-0.0366136661885434,"12":-0.7418823816644792,"13":0.03530991546372875,"14":1.0573516037476745,"15":0.5962529374065374,"16":-1.371505478072451,"17":0.9535843989379548,"18":-0.4545811334574416,"19":0.15079500717184963,"2":-0.5216095461897644,"20":0.4676229132969147,"21":-0.1891622669148839,"22":-0.8175505844294572,"23":0.05570543534653748,"24":0.9147404400769074,"25":-0.5475478377636042,"26":0.32234382152775626,"27":0.6014917447431865,"28":0.38326487014374255,"29":-0.41537278359325,"3":-0.8228717917416909,"30":0.40722006897183133,"31":0.11838068788720359,"32":0.17065889461958683,"33":-0.5508017212439356,"34":-0.1908975493636892,"35":0.6980809961241482,"36":0.5799688711203341,"37":0.7042139957884458,"38":-0.9071547593615521,"39":-0.5315286721396533,"4":0.04346507156590461,"40":-0.06140812402722263,"41":0.9118210394604332,"42":-0.9422400585955383,"43":0.5550688192388681,"44":0.7817297891170989,"45":0.5945750297555468,"46":-0.02661702322458577,"47":0.7375090792565696,"48":0.7045863216040522,"49":0.14156498916592897,"5":0.7653572191534168,"50":0.7060597552415535,"51":0.11537034211249125,"52":-0.06750267036957935,"53":-0.05427838984344032,"54":-0.5275392925809511,"55":-0.38746360667745017,"56":0.7920358897671441,"57":-0.08696066164128549,"58":0.5765831476790673,"59":-0.8883492538224446,"6":-0.4688949247718748,"60":0.5720743430890833,"61":-0.23439191869869075,"62":-1.034529251991334,"63":-0.4691488387707144,"64":-0.36045777764214,"65":-0.7807568590350061,"66":-0.8983751945554972,"67":0.9327652821436192,"68":-0.7633930478835406,"69":-0.8426606036561176,"7":-0.34141178624835955,"70":0.28662800988799697,"71":0.03817560350352486,"72":-0.7149986266670735,"73":0.06185857722708828,"74":-0.8671700186162896,"8":0.8457905819879761,"9":0.7022876674703212,"size":75},"24":{"0":0.6749455244605858,"1":-0.6351890621662044,"10":0.587812738425854,"11":-0.5193597216711929,"12":-0.3644795068208875,"13":-0.2513467818231754,"14":-0.638250679036835,"15":0.6872774437696455,"16":-0.7306491286965543,"17":0.6675911740470585,"18":0.3388927884762109,"19":0.4689101840266124,"2":-0.7375554673909734,"20":-0.6589300210577715,"21":0.1755827509384441,"22":0.1069252601702931,"23":0.9449751274147778,"24":0.6848469496749783,"25":0.9528312021240882,"26":-0.3227802362132639,"27":0.28502151554918037,"28":-0.7005035554063548,"29":0.8394262520218517,"3":1.000730002746665,"30":-0.3207245094149603,"31":-0.16835291604358055,"32":0.8456080813013097,"33":-0.47037018951994375,"34":0.9229889828180792,"35":-0.08261482589190343,"36":0.4589739677114165,"37":-0.5640302743613995,"38":0.11104159672841549,"39":-0.38742027039399374,"4":-1.2269307535019998,"40":0.37202307199316326,"41":0.5299252296517841,"42":-0.15738029114658061,"43":-0.09970763267921989,"44":0.0347233497116,"45":-0.4353569139683216,"46":-0.49125339518417954,"47":0.6742753379924923,"48":-0.09471236304818903,"49":0.9675154881435585,"5":0.33305215613269434,"50":-0.8983080538346508,"51":0.7361626026184881,"52":0.10312631611072104,"53":0.086438795129246,"54":1.038870204779199,"55":-1.0510904263435785,"56":-0.5058906826990578,"57":0.7388897366252625,"58":0.562485427411725,"59":-0.7779137546922207,"6":-0.3937528611102633,"60":-0.8194152653584403,"61":-0.4526334421826839,"62":-0.7025940733054603,"63":0.8445478682821126,"64":0.4660945463423567,"65":0.00932828760643328,"66":0.5464204840235607,"67":-0.7774175237281409,"68":0.4673281044953758,"69":0.12695944090090647,"7":-0.3047334208197274,"70":0.345820490127262,"71":-0.10136173589281919,"72":-1.0363035981322657,"73":0.4633912167729725,"74":-0.538014465773491,"8":0.35855037079988994,"9":-0.03168004394665383,"size":75},"25":{"0":0.2661134678182326,"1":-0.06368907742545868,"10":0.5311813715018162,"11":-0.8121201208532964,"12":0.14497940000610363,"13":0.4368163090914636,"14":0.7365782647175513,"15":0.7180199591051968,"16":-0.3670015564439838,"17":0.6658473464156004,"18":-0.7542796105838195,"19":-0.4244001586962496,"2":0.751286965544602,"20":0.8231116672261727,"21":0.15140293588061146,"22":0.3684536271248505,"23":-0.17076387829218428,"24":-0.8831012909329506,"25":0.34657185583056127,"26":0.7506039613025302,"27":-0.013539841914120892,"28":0.5353093050935401,"29":-0.1420496230964081,"3":-0.32965666676839506,"30":0.30598345896786455,"31":-0.4760197759941406,"32":-0.9262642292550424,"33":0.08286812952055392,"34":0.5309195226905118,"35":0.3891293069246501,"36":-0.01796746726889863,"37":0.05635425885799734,"38":0.2671187475203709,"39":0.015571764275032747,"4":-0.001589403973509998,"40":-0.6372875148777738,"41":0.1003509628589741,"42":-0.37996154667806026,"43":-0.7467384868923006,"44":0.48562089907528944,"45":0.6452272103030494,"46":-0.2612323374126413,"47":0.9950547807245087,"48":-0.48578691976683924,"49":0.05586596270638134,"5":0.5665651417584774,"50":-0.6574370555742064,"51":-0.720343638416699,"52":-0.3598590044862209,"53":-0.7069472334971147,"54":-0.437308267464217,"55":0.5542179631946768,"56":0.28213934751426784,"57":-0.9185686819055761,"58":-0.6173577074495687,"59":0.5154277169103056,"6":0.0005597094637896562,"60":-0.4341776787621698,"61":-0.02487441633350655,"62":0.4863466292306276,"63":0.3729166539506207,"64":0.580467543565172,"65":0.4531223487044895,"66":0.857382122257149,"67":-0.12602435377056206,"68":-0.8514151432844017,"69":-0.7457130649739063,"7":0.7174309518723107,"70":-0.8417053743095173,"71":0.5921060823389399,"72":-0.7344254890591154,"73":-0.7151554918057794,"74":0.9747044282357262,"8":0.027022309030426867,"9":0.7273714407788318,"size":75},"26":{"0":0.7603900265511033,"1":0.8246412549211094,"10":-1.121255531479843,"11":0.7391070284127329,"12":0.33030732139042346,"13":0.9412457655568109,"14":-0.8470943327127909,"15":0.07047456282235151,"16":0.0811120944853053,"17":-0.3254139835810417,"18":-0.3279757072664573,"19":1.0241755424665064,"2":0.32789757988219886,"20":-0.020720236823633664,"21":0.7844874416333496,"22":0.5021033356730858,"23":0.8154826502273611,"24":0.23988280892361222,"25":-0.9172148808252205,"26":-0.14377513962218094,"27":0.6569615771965694,"28":0.30907559434797177,"29":-0.3806085390789512,"3":-0.010324411755729913,"30":1.0800933866389968,"31":-0.052228766747032224,"32":-0.29914365062410353,"33":0.5570970793786434,"34":0.3497640919217503,"35":-0.8953160191656234,"36":-0.7904757835627326,"37":0.11966734824671148,"38":0.354157536545915,"39":0.4004889065218047,"4":-0.44899990844447135,"40":-0.2806360057374798,"41":0.10761680959501907,"42":-0.9276100955229352,"43":0.39586046937467595,"44":0.0527530747398295,"45":0.8184228034302806,"46":-0.4418671224097414,"47":0.43237769707327495,"48":-0.001666920987579124,"49":-0.39272988067262843,"5":-0.27654896694845443,"50":-0.39836420789208665,"51":-0.32941373943296637,"52":0.9200469985045929,"53":-0.17460310678426458,"54":0.5210992767113255,"55":0.46158085879085675,"56":0.08823145237586608,"57":-0.7892709128086178,"58":-0.6459443952757334,"59":0.7168071535386213,"6":-0.15238380077517047,"60":-0.26512833033234656,"61":-0.7311111789300199,"62":0.3411725211340679,"63":-0.5366411328470706,"64":-0.12743919186986896,"65":0.8192565691091636,"66":0.6518747520371112,"67":-0.5493569750053402,"68":0.3406274605548263,"69":-0.6569719534897909,"7":-0.46269966734824747,"70":0.22491164891506732,"71":-0.7061238441114536,"72":0.8977166051210054,"73":0.19000030518509492,"74":-0.08596819971312608,"8":-0.27847285378582143,"9":-0.7701553392132321,"size":75},"27":{"0":-0.6374626911221659,"1":-0.256937162388989,"10":0.18404797509689608,"11":0.7375414288766119,"12":-0.41687246314889936,"13":0.966701254310739,"14":-0.04046388134403533,"15":0.6162205877864925,"16":0.3630555131687368,"17":0.08414624469740888,"18":-0.3396954252754288,"19":-0.5201959288308362,"2":-0.42076540421765823,"20":-0.8432038331247897,"21":0.3796996978667566,"22":-0.09134739219336532,"23":0.3916135135959963,"24":-0.11463667714468842,"25":0.9004657124546044,"26":-0.28500320444349536,"27":0.765489059114352,"28":-0.5492715231788079,"29":-0.5129038361766414,"3":0.1305423139133882,"30":1.0149101229895932,"31":-0.3797631763664661,"32":-0.5801147495956305,"33":-0.5710086367381817,"34":-0.38945219275490617,"35":0.13993408001953192,"36":-0.8316312143314923,"37":0.9977343058565027,"38":0.27335795159764376,"39":-0.36803979613635657,"4":0.5980791650135812,"40":0.7298861659596537,"41":0.9427051606799522,"42":0.8625269325846124,"43":-0.7048573259681998,"44":-0.20120731223487015,"45":-0.8510922574541472,"46":-0.16227668080690943,"47":-0.6529313028351696,"48":-0.6680422376171137,"49":-0.6022779015472877,"5":-0.03189489425336489,"50":-0.9590142521439261,"51":0.1638679158909879,"52":0.8946208075197596,"53":0.7126749473555701,"54":-0.6357756279183328,"55":-0.15747001556443996,"56":0.678047425763727,"57":1.051396832178717,"58":0.7383269753105258,"59":-0.322240668965728,"6":0.930856654560991,"60":0.2752604754783774,"61":0.5447437971129486,"62":-0.6187206640827654,"63":-1.0764525284585091,"64":-0.5600671407208472,"65":0.4445496993926807,"66":1.0203485213782166,"67":0.09207251197851501,"68":-0.5044734031189919,"69":0.34067445905941934,"7":-0.1668733787041841,"70":0.04439466536454345,"71":-0.9600122074037907,"72":0.16099978637043363,"73":0.4095864741966,"74":-0.8159056367686999,"8":0.4480202642902923,"9":0.8780455946531568,"size":75},"28":{"0":-0.9859321878719429,"1":-0.8414221625415808,"10":0.9280599383526108,"11":0.18584917752616953,"12":0.014560991241187687,"13":0.6891683706167787,"14":-0.7979210791344956,"15":-0.6631299783318583,"16":0.7799249244666883,"17":0.7831379131443228,"18":0.7337711722159493,"19":0.9097915585802795,"2":0.9752366710409861,"20":0.6329721976378663,"21":0.6259065523239845,"22":0.8099368266853837,"23":0.9578344065675822,"24":-0.8106723227637571,"25":-0.6570537430951874,"26":-0.20325998718222574,"27":-0.40551774651326,"28":-0.22494949186681765,"29":-0.40254036072878296,"3":-0.16495864741966024,"30":-0.4995764030884735,"31":-0.726541947691275,"32":-0.24942655720694634,"33":-0.6762138737144083,"34":-0.008271736808374347,"35":0.9225177770317697,"36":0.11469710379345062,"37":0.3399877925962097,"38":0.31262245551927215,"39":-0.4938871425519573,"4":0.487608264412366,"40":0.34049378948332176,"41":0.4455446028015984,"42":-0.8512057863093964,"43":0.3749467452009628,"44":-0.6862337107455658,"45":-0.949669484542375,"46":1.0076894436475716,"47":-0.004023560289315465,"48":0.1462996307260354,"49":-0.07880123294778274,"5":0.1914047669911802,"50":0.7035450300607312,"51":-1.0982988982818074,"52":0.8336912137211222,"53":-0.7077999206518747,"54":-0.2483120212408827,"55":-0.44646198919644847,"56":-0.20989288003173934,"57":0.42520401623584625,"58":0.8920090334788064,"59":0.5956694235053562,"6":-0.2572405163731803,"60":-0.6285091708120976,"61":-0.17336222418897076,"62":0.8234430982390817,"63":-0.003592028565325034,"64":-0.12295968504898216,"65":-0.9132926419873657,"66":0.6112082277901556,"67":0.3922348704489273,"68":-0.21827021088290058,"69":-0.5920279549546811,"7":-0.5203607287820062,"70":-0.11305642872402094,"71":-0.08849574266792833,"72":0.1899746696371347,"73":0.5680330820642707,"74":-0.05586596270638145,"8":0.8373143711661122,"9":0.15446638386181222,"size":75},"29":{"0":-0.06604083376567896,"1":-0.7174907681508845,"10":0.8247248756370729,"11":0.7025189977721488,"12":-0.62078676717429,"13":-0.570988494521928,"14":0.008252815332499164,"15":0.47866695150608884,"16":0.1610553300576802,"17":0.23968138676107023,"18":0.10698873867000341,"19":1.1728244880520036,"2":0.364600360118412,"20":-0.020005493331705815,"21":-0.1976714377269811,"22":-0.4487734611041598,"23":0.5123984496597175,"24":0.49786553544724815,"25":0.9783062227240801,"26":-0.46328379161961714,"27":0.8915530869472333,"28":0.528337656788842,"29":-0.1414423047578359,"3":-0.2308615375225071,"30":0.5734751426740317,"31":-0.8107290871913818,"32":-0.41318460646382016,"33":0.6193804742576369,"34":0.18610980559709478,"35":0.513963438825648,"36":-0.03733451338236657,"37":-0.8894186223944831,"38":0.3314590899380469,"39":0.7946385082552558,"4":0.0020221564378794903,"40":-0.35093844416638686,"41":-0.4293917661061435,"42":-0.9396594134342496,"43":-0.8786541337321085,"44":0.8679726554155093,"45":0.33711844233527616,"46":0.6893490401928771,"47":0.19527939695425248,"48":0.7051130710776069,"49":0.14646137882625823,"5":-0.5324326303903328,"50":0.9285018463698235,"51":-0.2910049745170447,"52":-0.2675154881435594,"53":0.3514505447553946,"54":0.172233649708548,"55":-0.05967955565050209,"56":1.1140415662099055,"57":-0.4499880977813038,"58":-0.4411627552110349,"59":-0.20143131809442494,"6":0.3075374614703813,"60":-0.7099508651997435,"61":-0.7645863216040532,"62":0.3847041230506301,"63":0.16607562486648128,"64":1.0584948271126442,"65":-0.12073427533799258,"66":0.28028321176793736,"67":-0.46414685506759795,"68":0.44693197424237807,"69":0.29856013672292225,"7":-0.03017181920834997,"70":0.19357036042359704,"71":-0.31390118106631687,"72":0.9339878536332277,"73":-0.22154972991119146,"74":0.5074629963072613,"8":0.7001782280953387,"9":-0.013064363536484935,"size":75},"3":{"0":0.6866389965514075,"1":-0.16212408825952945,"10":0.458090762047182,"11":0.5638416699728386,"12":0.1743662831507311,"13":-0.10415723136082045,"14":-0.2375713370159004,"15":0.018581499679555656,"16":-0.9244349497970518,"17":0.44816248054444985,"18":1.2595141453291403,"19":-0.7615710928678234,"2":-0.77950376903592,"20":-0.79668263801996,"21":-0.5583257545701458,"22":-0.26740440076906635,"23":-1.052505264442885,"24":0.5425580614642794,"25":-0.00994354075746946,"26":0.3742045350505084,"27":-0.09182103946043285,"28":0.08696615497299104,"29":-0.7111178930021057,"3":0.389298989837336,"30":-0.47248878444776765,"31":1.0407507553331068,"32":1.0060145878475295,"33":0.9594354075746938,"34":-0.09954283272804948,"35":-0.513389080477309,"36":-0.08054383983886242,"37":0.6694369335001692,"38":0.6677718436231579,"39":0.8673915829950867,"4":-0.5852656636249886,"40":1.046103091525011,"41":-0.7271437726981408,"42":0.07725577562791837,"43":0.7701266518143248,"44":0.9721127964110234,"45":0.6089791558580284,"46":0.3574840540787993,"47":0.07062837611011064,"48":0.6460872219000817,"49":0.30273018585772216,"5":0.19800408948026973,"50":0.6814423047578348,"51":-0.29365276039918214,"52":0.7064967802972495,"53":-0.152773216956084,"54":0.6241883602404862,"55":-0.11101107821894005,"56":0.9080135502182081,"57":0.5698458815271454,"58":1.0696279793694885,"59":0.988871120334483,"6":-0.054329050569170215,"60":-0.3071333964049193,"61":0.12295541245765572,"62":0.642964568010498,"63":0.6027332377086697,"64":-1.0263917966246536,"65":-0.35909970397045804,"66":0.10526566362498858,"67":-0.044900662251655815,"68":-0.9265181432538828,"69":0.5041206091494489,"7":0.9022748496963405,"70":0.08619891964476452,"71":-0.2546311838129824,"72":0.4902896206549266,"73":-0.08855922116763827,"74":-0.6690615558336135,"8":-0.042600177007354884,"9":0.6451979125339516,"size":75},"30":{"0":0.1736320078127384,"1":-0.786055482650228,"10":-0.13444746238593702,"11":0.8760093997009192,"12":0.026479079561754035,"13":0.35674001281777357,"14":-0.6209790337839903,"15":0.558288521988586,"16":0.08636677144688247,"17":-0.06827112643818484,"18":-0.6541959898678557,"19":-1.0443397320474868,"2":0.44158818323313087,"20":0.0023133030182805932,"21":0.17524277474288147,"22":0.2931876583147681,"23":0.8238135929441214,"24":-0.9652693258461266,"25":0.8250270088808866,"26":0.5307498397778249,"27":0.3657863093966494,"28":-0.48119205298013296,"29":-0.6787108981597337,"3":0.17673451948606828,"30":-0.33924192022461613,"31":1.2254640339365819,"32":0.5707327494125174,"33":-0.3672109134189881,"34":0.22579363383892315,"35":-1.0098764000366216,"36":-0.49622974333933556,"37":0.073013092440565,"38":0.7436854152043225,"39":-0.5300241096224867,"4":0.6866988128299817,"40":0.23585070345164355,"41":0.2040156254768517,"42":-0.7778051087984862,"43":1.119950560014649,"44":0.8283883175145728,"45":-0.936789452803126,"46":0.043656117435224295,"47":-0.4299502548295547,"48":0.7996325571459084,"49":-0.5506369212927634,"5":0.5834174626911214,"50":0.1112869655446027,"51":0.9517801446577332,"52":-0.5678554643391218,"53":-0.17531540879543445,"54":-0.4313980529190957,"55":0.7646052430799279,"56":0.6568388927884767,"57":-0.17166417432172595,"58":0.8028846095156721,"59":0.43112094485305347,"6":0.714730674153872,"60":0.5533591723380245,"61":0.8191454817346728,"62":-0.17612170781579073,"63":0.3451271095919673,"64":-0.6097244178594309,"65":-0.5788567766350288,"66":-0.49056855983153774,"67":1.0405108798486291,"68":0.183935056611835,"69":0.592017578661458,"7":0.7320120853297531,"70":-0.3711471907712029,"71":-0.4940610980559707,"72":-0.5412659077730629,"73":-1.134095278786585,"74":0.8552507095553449,"8":0.13903256324961125,"9":0.003556016724143086,"size":75},"31":{"0":-0.0072518082216863795,"1":-0.6901889095736558,"10":-0.2844581438642537,"11":-0.17094027527695552,"12":-0.5781017487105917,"13":-0.8455671864986113,"14":-0.7503482161931223,"15":0.006743980224005704,"16":0.6439313943906978,"17":0.2367796868800919,"18":0.016364635151219144,"19":-1.0495791497543263,"2":0.6720187994018378,"20":0.368477431562242,"21":-0.1635139011810665,"22":1.0172057252723772,"23":-1.1314053773613697,"24":-0.6500814844203011,"25":-0.7493392742698451,"26":-0.900205084383679,"27":0.5620599993896311,"28":0.7347892696920677,"29":-0.3466908780175181,"3":-0.2815869624927517,"30":0.9226868495742676,"31":-0.045406659138767826,"32":0.7145194860683,"33":-0.31904293954283264,"34":-0.15718497268593404,"35":0.33409405804620534,"36":0.9275960570085758,"37":0.2720151371807002,"38":0.5236878566850791,"39":1.1551774651326037,"4":-0.33941831720938737,"40":-0.5435517441328164,"41":0.12055726798303157,"42":-0.162054506057924,"43":-0.3456147953733937,"44":0.3861769463179426,"45":-0.33360637226477796,"46":0.6429621265297398,"47":-0.029402142399365255,"48":-0.2301455732902007,"49":0.7222162541581466,"5":0.7491677602465893,"50":0.2634162419507432,"51":-0.9405792413098553,"52":0.42873683889278813,"53":0.47949156163212964,"54":-0.03999389629810506,"55":0.6354393139439071,"56":0.25188940092165896,"57":-0.2462349314859462,"58":-0.8429126865443891,"59":0.8711276589251382,"6":-0.47950498977629924,"60":0.3224439222388381,"61":-0.3686733603930788,"62":-0.6113168736838885,"63":1.0465511032441184,"64":-0.9837507248146,"65":0.5981029694509709,"66":-0.9034272286141547,"67":0.01772270882290091,"68":-0.24027649769585283,"69":-0.6883339945677066,"7":-0.5303213599047821,"70":-1.0012378307443484,"71":0.3978801843317975,"72":-0.028064821314127245,"73":0.6786638996551391,"74":0.5032563249610893,"8":0.34940214239936546,"9":0.21603381450849973,"size":75},"32":{"0":1.0207824945829653,"1":-0.0009314249092075132,"10":-0.544304940946684,"11":-0.22979461043122626,"12":-0.9417969298379466,"13":0.9709854426709783,"14":-0.6108700827051613,"15":0.7059413434247871,"16":-0.7996868800927762,"17":0.46627094332712843,"18":0.010890224921414669,"19":-0.8400750755333098,"2":-0.46247444074831445,"20":-0.9664540543839848,"21":0.6607190160832548,"22":-0.6762089907528921,"23":-0.5443861201818899,"24":0.35263222144230544,"25":0.9374138615070052,"26":-0.7422577593310339,"27":-0.6529856257820362,"28":0.2644813379314556,"29":0.18615985595263537,"3":-0.9767418439283422,"30":0.4894570757164223,"31":-0.0361619922482985,"32":0.20049928281502752,"33":-0.5264851832636488,"34":0.07906552323984507,"35":0.02722556230353694,"36":1.0519363994262552,"37":0.19960814233832827,"38":0.6634253975035848,"39":0.6348527481917786,"4":-0.38122013000885063,"40":0.34160405285805845,"41":-0.550747398297067,"42":0.6880532242805271,"43":0.34959379863887396,"44":0.3018750572222051,"45":0.10307077242347475,"46":0.13921750541703531,"47":0.209275185399945,"48":-0.04982879116183968,"49":-0.22518814661091965,"5":0.18573564867091913,"50":-0.9437714774010442,"51":-0.7065132602923675,"52":-1.145572679830317,"53":0.7614545121616274,"54":1.0070589312417968,"55":0.203396099734489,"56":-0.04170903653065587,"57":-0.28827234717856354,"58":0.9461214026306964,"59":0.5508053834650708,"6":-0.2708279671620837,"60":-0.24213507492294092,"61":-0.8394396801660208,"62":0.1784258552812279,"63":-0.7464827417828906,"64":-0.01782586138493014,"65":-0.8063118381298251,"66":-0.5115988647114474,"67":-0.7075704214606159,"68":0.8869087801751767,"69":-0.5891091647083959,"7":0.9520108645893735,"70":0.8167760246589549,"71":0.8262153996398804,"72":0.47384502700888015,"73":0.7323313089388713,"74":-0.8746378978850673,"8":0.5260536515396592,"9":-0.18961882381664477,"size":75},"33":{"0":-0.6989007232886747,"1":-0.47277565843684155,"10":-0.7765904721213416,"11":0.8227191991943111,"12":1.124593035676138,"13":-0.7295223853267006,"14":0.22554277169103015,"15":-0.8012378307443475,"16":-0.18638019959105234,"17":-0.48305734427930536,"18":-0.11198339793084516,"19":-0.8229267250587482,"2":0.7354808191167945,"20":-0.512471694082462,"21":0.7506479079561751,"22":-0.9849586474196608,"23":-0.5507443464461188,"24":-0.8420630512405773,"25":-0.7632251960814243,"26":-0.3498544267097995,"27":0.5075844599749747,"28":0.50129703665273,"29":-0.613431196020386,"3":0.0724491103854489,"30":0.09783318582720393,"31":-0.49699697866756154,"32":-0.13097079378643184,"33":0.8915274513992739,"34":0.2465230262153997,"35":-0.33645680104983705,"36":0.5188518936735129,"37":0.6150022888882106,"38":-0.4432471694082458,"39":0.7330344553971988,"4":-0.5682918790246282,"40":0.9020734275337987,"41":-0.6258076723532819,"42":-0.8571178319650867,"43":0.6922293771172198,"44":-0.37476912747581415,"45":0.08136417737357686,"46":0.252601092562639,"47":-0.11577623828852222,"48":-0.519461653492844,"49":-0.5227655873287164,"5":-0.30261116367076607,"50":0.4525077059236418,"51":-0.4565672780541397,"52":0.36201788384655287,"53":1.1271169164098016,"54":-0.33565660573137535,"55":-0.008379772331919388,"56":-0.2561668752098147,"57":-0.48896572771385804,"58":-0.8608160649433869,"59":0.18025452436903,"6":-0.07200964384899473,"60":-1.0232306894131293,"61":0.8601525925473802,"62":-0.28474868007446513,"63":0.7424500259407327,"64":0.3389269692068237,"65":-0.891924192022461,"66":0.5458015686513874,"67":-0.44633747367778565,"68":-0.7624915311136199,"69":0.052101809747611784,"7":0.07801385540330191,"70":-0.5964860988189329,"71":-0.5358214056825469,"72":-0.4626294747764517,"73":-0.20824121829889813,"74":-0.5527036347544785,"8":-0.192329477828303,"9":0.3042658772545549,"size":75},"34":{"0":0.8432575457014675,"1":0.07255653553880409,"10":-0.5112973418378244,"11":-0.5005853450117491,"12":-0.5684859767448952,"13":0.33172460097048834,"14":-0.24465285195471065,"15":0.9711813715018166,"16":-1.0745268105105743,"17":0.8105612353892638,"18":-0.20918362987151704,"19":0.8853852961821355,"2":-0.7808618427076024,"20":0.4114102603228856,"21":0.4175164036988429,"22":0.8668160039063699,"23":-0.04570940275276958,"24":0.5500515762810149,"25":-0.423915524765771,"26":0.05422467726676212,"27":0.10172307504501522,"28":0.780958891567736,"29":-0.12411206396679612,"3":1.0381212805566582,"30":0.6207074190496525,"31":-0.8645826593829155,"32":0.7894869838557081,"33":0.8350706503494368,"34":0.5683956419568469,"35":-0.20170842616046641,"36":-0.6019647816400636,"37":-0.18774925992614488,"38":0.5036317026276433,"39":-1.0749961851863141,"4":-0.8830005798516815,"40":-0.5379760124515524,"41":0.6040266121402639,"42":0.48934171575060265,"43":1.209525437177649,"44":-0.8485433515427103,"45":-0.4558726767784661,"46":-0.34849757377849716,"47":-0.2695962401196327,"48":-0.6997149571214946,"49":-0.4582921842097244,"5":0.6776415295876953,"50":0.07130832850123592,"51":0.6801532029175703,"52":0.16382641071810097,"53":0.4728672139652704,"54":0.9135343485824159,"55":-0.6558952604754787,"56":-0.09385540330210283,"57":-0.8361784722434155,"58":-0.5168010498367257,"59":0.23627368999298082,"6":-0.46981536301767024,"60":0.7188598284859771,"61":0.340797143467513,"62":-0.9389172032837916,"63":0.5972276985992007,"64":-0.22888210699789485,"65":-0.3975548570207834,"66":-0.9901644947660743,"67":-0.3590618610187078,"68":0.47445234534745284,"69":-0.1468904690694907,"7":-1.0106863612781158,"70":0.0816351817377239,"71":0.5773870052186653,"72":-0.1786602374340038,"73":0.6302804651020841,"74":-0.6613898129215385,"8":0.14167241431928473,"9":-1.0054310739463486,"size":75},"35":{"0":0.8350804162724684,"1":0.7002484206671348,"10":-0.7858192693868832,"11":0.11047456282235174,"12":-0.18122684408093537,"13":0.5018176824243903,"14":1.0515952024903106,"15":0.9768871120334484,"16":-0.6967662587359241,"17":0.7796124149296548,"18":-0.623308206427198,"19":-1.1309073152867224,"2":-0.6748771629993602,"20":0.6938608966338091,"21":-0.30556718649861153,"22":0.7657875301370273,"23":0.9806408886989956,"24":-0.3950798059022807,"25":-0.12041261024811527,"26":-0.8700033570360436,"27":0.6246034119693586,"28":0.5954545731986455,"29":-0.7976781517990666,"3":0.65767326883755,"30":0.4748112430188906,"31":0.24274056215094447,"32":0.547740714743492,"33":0.4525901058992274,"34":0.5399475081637023,"35":0.8482375560777609,"36":0.5043397320474855,"37":0.5976537369914855,"38":0.2788482314523754,"39":0.6336259041108426,"4":-0.4075203711050757,"40":-0.6119528794213696,"41":-0.07358378856776646,"42":0.052078615680410154,"43":-0.583963133640553,"44":0.11276284066286212,"45":0.3630780968657493,"46":-0.04894436475722537,"47":-0.4104434339426862,"48":-0.33015594958342254,"49":-0.648632465590381,"5":0.5878786584063231,"50":-0.3905984679708244,"51":-0.4826221503341771,"52":-0.6621790215765856,"53":-0.7279226050599689,"54":0.057150791955320614,"55":-0.8860774559770498,"56":0.44032288583025603,"57":0.15302591021454504,"58":-0.8257795953245641,"59":-0.4310397656178467,"6":-0.32941190832239736,"60":0.23945127719962175,"61":0.43434125797296086,"62":0.38011108737449295,"63":0.1440650654622027,"64":0.2904702902310257,"65":-0.6101944029053629,"66":-0.06510513626514498,"67":0.03383037812433234,"68":-0.29607165746024977,"69":-0.11466292306283773,"7":-0.8695315408795441,"70":0.42932218390453847,"71":0.14206610309152484,"72":-0.19858638264107206,"73":0.435900143436994,"74":-0.161821955015717,"8":-0.03711233863338142,"9":-1.1400402844325084,"size":75},"36":{"0":-0.2750511185033723,"1":-0.7479067354350413,"10":0.48291573839533664,"11":0.6702407910397661,"12":-0.060571916867580275,"13":0.14845606860560923,"14":0.12067018646809292,"15":-0.5019586779381701,"16":0.06769798883022544,"17":0.7809619434186833,"18":0.6326517532883688,"19":0.5699246192815951,"2":0.5421375164036989,"20":0.7612128055665772,"21":-0.5825171666615798,"22":0.3993658253730888,"23":-0.26216437269203735,"24":0.3213422040467539,"25":-0.47934751426740324,"26":-0.6670314645832693,"27":-0.7939201025421911,"28":0.6934946745200968,"29":-0.13999206518753626,"3":-0.24445020905178957,"30":-0.4527311014130071,"31":0.5856221198156681,"32":0.20819849238563176,"33":-0.8060194708090447,"34":-0.26247932370983024,"35":0.7794579912717067,"36":-0.4500192266609702,"37":0.20774376659443916,"38":-0.04870815149388114,"39":-0.7650154118472852,"4":-0.08830225531785037,"40":-0.3743406476027718,"41":0.713979918820766,"42":0.17185522019104568,"43":-0.30042847987304244,"44":0.4227991576891386,"45":-1.0580370494705058,"46":-0.22533036286507774,"47":-0.2248487807855463,"48":-0.41027314065981,"49":-0.597313760795923,"5":-0.2852357554857025,"50":0.4389129306924649,"51":-0.030672933133945826,"52":0.4089394817957091,"53":0.23423993652150005,"54":-0.22522965178380705,"55":0.39765190588091626,"56":-0.006088442640461447,"57":0.35514206366161055,"58":0.5687160863063455,"59":-0.6854908902249218,"6":-0.25155186620685477,"60":-0.878236030152288,"61":-0.6879805902279728,"62":-0.8540568254646448,"63":0.10861232337412632,"64":-0.2070613727225564,"65":0.4067757194738602,"66":0.4940763573107081,"67":-0.6815430158391058,"68":0.967499618518632,"69":0.48991180150761454,"7":0.6261256752220226,"70":-0.1531608020264292,"71":0.10575579088717305,"72":0.15201879940183732,"73":0.967295144505142,"74":-0.8295944090090642,"8":-0.30549150059511054,"9":0.5529142124698633,"size":75},"37":{"0":0.4413190099795518,"1":-0.8939024018066957,"10":-0.4226783043916138,"11":0.2161485641041287,"12":0.4045539719840077,"13":0.8909115878780479,"14":-0.04079165013580754,"15":-0.23303262428662974,"16":-0.21867244483779463,"17":0.7572301400799591,"18":0.6570043031098358,"19":-0.6767033906064033,"2":-0.015130466628009999,"20":0.32270699179052076,"21":-0.5974101992858671,"22":0.8701004058961758,"23":0.022830896938993435,"24":-0.4705166783654289,"25":-1.016719260231331,"26":0.5335105441450241,"27":0.5081026642658768,"28":0.689180578020569,"29":0.09104403820917362,"3":0.7533640552995386,"30":-0.5896768089846486,"31":0.23614307077242344,"32":-1.0474959562974944,"33":1.0477010406811726,"34":0.19215186010315266,"35":-0.058628498184149,"36":-0.329965514084292,"37":0.8415820795312352,"38":0.1545970030823694,"39":-0.42688863795892246,"4":0.5404547257911925,"40":0.4234736167485578,"41":-0.9829877620777002,"42":0.5948344370860917,"43":0.7096072267830431,"44":0.2099887081514938,"45":-0.592060304574726,"46":0.5959733878597369,"47":0.40859767448957773,"48":-0.6857728812524794,"49":-0.5139463484603412,"5":0.1204956205938901,"50":0.9057148960844744,"51":-0.6028266243476673,"52":0.6846290475173191,"53":0.8969176305429247,"54":0.534828943754387,"55":-0.03902218695638919,"56":-0.869308755760369,"57":-0.4069032868434711,"58":-0.7579235206152531,"59":0.7543595690786462,"6":0.4388378551591541,"60":0.17733878597369296,"61":0.2366386913663136,"62":0.8518637653736995,"63":-0.8471944334238711,"64":-0.7681203650013733,"65":0.8219739371929071,"66":0.19021210364085817,"67":1.0096194341868334,"68":0.12131351664784688,"69":0.05066194647053449,"7":-0.5390441602832119,"70":1.0864491714224667,"71":0.035697500534073875,"72":-0.08554277169103083,"73":0.6283840449232452,"74":0.045740531632435084,"8":-0.5553495895260468,"9":-0.041546067690054124,"size":75},"38":{"0":0.6075453962828449,"1":0.5667207861568042,"10":0.8718619342631306,"11":-0.8968120365001376,"12":-0.9078890346995456,"13":-0.898466139713738,"14":-0.8116104617450483,"15":0.8706112857448041,"16":-0.7688845484786531,"17":0.30358958708456596,"18":0.9186541337321082,"19":1.091830805383466,"2":-0.5830610065004425,"20":-0.009403973509933819,"21":-0.7610144352549825,"22":-0.16010803552354502,"23":0.5966838587603387,"24":-0.9049806207464832,"25":-0.7670320749534598,"26":-0.7381377605517752,"27":-0.6178252510147403,"28":-0.7846870326853241,"29":0.7678438673055209,"3":0.13971434675130448,"30":-0.10773583178197584,"31":1.0807672353282276,"32":0.18865688039796136,"33":-0.871460921048616,"34":-0.23394390697958342,"35":-0.4638831751457257,"36":0.31571825312051766,"37":-0.8237556077761164,"38":0.031094698934904,"39":0.513397625659963,"4":0.060393688772240176,"40":-0.3835029145176555,"41":0.34540482802819933,"42":0.7395684682760102,"43":0.20864467299417105,"44":0.16598223822748503,"45":0.5827265236365863,"46":-0.2626764732810447,"47":0.6449024933622237,"48":-0.2896926786095769,"49":0.5824390392773213,"5":0.5824591814935746,"50":-0.7766246528519555,"51":-0.09861934263130619,"52":0.6457960753196802,"53":-0.285044099246193,"54":0.8684511856440936,"55":-0.6595471053193767,"56":0.8812549211096522,"57":-0.4751432844019896,"58":0.365633716849269,"59":0.5409247108371217,"6":-0.7089809869685958,"60":-0.5150737022003844,"61":0.1347483748893702,"62":0.18480422376171138,"63":-0.018698690755943638,"64":0.2578972746971032,"65":-1.1091170995208586,"66":0.35968443861201815,"67":0.902018494216743,"68":0.11388775292214744,"69":-0.6927311014130065,"7":0.8200958281197545,"70":0.001413617358927921,"71":0.7702383495590069,"72":0.34875453962828395,"73":0.4239979247413558,"74":0.6484725486007269,"8":0.7715512558366645,"9":-0.3275514999847408,"size":75},"39":{"0":0.7357347331156334,"1":0.9586651203955207,"10":-0.6181188390758989,"11":-0.9492104861598575,"12":-0.3382665486617633,"13":-0.8023145237586586,"14":0.13814630573442785,"15":-0.8515994750816372,"16":-0.8471797845393226,"17":0.6637549974059258,"18":-0.11219336527603983,"19":-0.881705984679708,"2":-0.10391064180425436,"20":-0.5195196386608475,"21":0.4264418469801933,"22":0.1300906399731438,"23":0.038361766411328366,"24":-0.8546201971495699,"25":-0.4792602313303027,"26":-0.3715073091830195,"27":-0.6066768395031589,"28":-0.33379680776390863,"29":0.9509549241615043,"3":0.42408398693807775,"30":-0.40997283852656685,"31":0.7833393353068628,"32":0.3003869747001557,"33":-0.7876863917966245,"34":0.9848341319009988,"35":0.18913296914578692,"36":-0.20816858424634516,"37":0.8542625202185126,"38":0.06267769402142381,"39":0.46755882442701396,"4":0.802531815546128,"40":-0.8094833216345709,"41":0.5250154118472862,"42":0.5033558153019811,"43":-0.23332865382854673,"44":0.3917514572588275,"45":-0.33965636158330054,"46":-0.42487075411236896,"47":-0.18692587054048287,"48":0.1795880001220739,"49":0.03698171941282395,"5":-0.2100906399731442,"50":-0.5592352061525312,"51":-0.45854121524704716,"52":-0.7975627918332476,"53":0.35170079653309744,"54":-0.6361931211279641,"55":0.6590234076967686,"56":1.0657966856898706,"57":-0.7917960142826619,"58":-0.8261622974333939,"59":-0.10540726950895737,"6":0.849792779320657,"60":0.9484603411969351,"61":-0.3079634998626668,"62":0.366529129917295,"63":-0.17498458815271453,"64":-0.7101901303140352,"65":0.015555894650105175,"66":0.5733683278908656,"67":0.8291299172948391,"68":-0.4272157963805047,"69":0.8338877529221487,"7":0.11345133823664047,"70":0.519511093478194,"71":-0.679379863887448,"72":0.4088753929258099,"73":-0.3070760216071044,"74":-0.4360380870998265,"8":-0.5569566942350538,"9":0.9209790337839899,"size":75},"4":{"0":-0.028846705526902147,"1":-0.06929715872676777,"10":-0.7231971190527053,"11":-0.8854383983886223,"12":-1.0993255409405822,"13":0.22176091799676484,"14":0.6474037903988781,"15":0.10387829218420952,"16":-0.8841261024811532,"17":0.2100997955259869,"18":-0.10798730430005817,"19":0.9867311624500268,"2":-0.876951811273537,"20":0.15901425214392503,"21":0.5202288888210697,"22":-0.37896053956724784,"23":0.8088418225653855,"24":0.4629279457991267,"25":-0.17742423780022587,"26":-0.9448664815210437,"27":0.11138828699606315,"28":0.6551573229163481,"29":-0.11674611651966935,"3":-0.10177922910245055,"30":0.7912729270302431,"31":-0.1216547135837886,"32":0.1392492446668902,"33":0.3637366863002405,"34":-0.8921842097231969,"35":0.6453944517349791,"36":-0.825334025086214,"37":-0.633017975402082,"38":0.7717685476241335,"39":0.8649208044679091,"4":-0.6599932859279151,"40":0.24558488723410735,"41":-0.6637568285164949,"42":-0.5532444227423926,"43":0.38489150669881234,"44":0.3898117007965326,"45":-0.7873842585528129,"46":0.3060176396984767,"47":0.19700979644154148,"48":0.2796270638142038,"49":0.2576006347849967,"5":-0.17885921811578745,"50":0.029022492141483766,"51":-0.8698599200415055,"52":-0.5543638416699725,"53":-0.39281533249916073,"54":0.24479567857905835,"55":-0.7535813470870084,"56":0.8344676046021915,"57":0.023434553056428692,"58":-0.45784356212042593,"59":1.0148844874416334,"6":-0.006681722464674878,"60":0.09186437574388852,"61":0.9296102786339914,"62":-0.11127719962157055,"63":0.5800219733268217,"64":0.1427521591845452,"65":0.5358439893795585,"66":-0.9406414990691847,"67":-0.31921750541703525,"68":-0.7211218604083383,"69":-0.2190990936002688,"7":-0.014943693350016968,"70":0.33608813745536714,"71":-0.3232050538651692,"72":0.26566667683950307,"73":0.3166051210058902,"74":0.19969969786675612,"8":-0.8400268562883392,"9":-0.1996447645496995,"size":75},"40":{"0":-0.008185674611652073,"1":0.29322611163670786,"10":0.4374431592761008,"11":-0.22895779290139462,"12":0.13480880153813266,"13":-0.5664632099368275,"14":0.17450972014526822,"15":-0.9612036500137324,"16":0.5290615558336128,"17":0.03508285775322721,"18":0.4673714407788331,"19":0.9576976836451313,"2":0.3512704855494854,"20":0.390902432325205,"21":-0.6575249488814955,"22":0.06316049684133397,"23":-0.8926468703268544,"24":-0.18283089693899385,"25":0.21639210180974774,"26":0.8456648457289344,"27":0.45980773339030107,"28":0.12399914548173457,"29":0.8142161320841081,"3":-0.5803967406231881,"30":-0.9539042329172639,"31":0.8899319437238676,"32":-1.061840266121403,"33":0.19998352000488273,"34":-0.22118045594653157,"35":-0.6036408581804864,"36":0.6405829035309921,"37":0.39976805932798265,"38":-0.8000708029419847,"39":-0.43186864833521543,"4":0.05871211890011295,"40":0.6723661000396735,"41":0.9677791680654306,"42":-0.46656575212866624,"43":-0.7879592272713412,"44":-0.6448744163335062,"45":0.870807824945829,"46":0.0440601825006864,"47":-0.7200439466536455,"48":-0.8831092257454146,"49":1.1557707449568164,"5":0.9538810388500657,"50":-0.6216791283913694,"51":-0.09094027527695553,"52":-0.9258375804925688,"53":0.4479061250648519,"54":-0.36388256477553627,"55":0.533859065523239,"56":0.8224384289071326,"57":-0.4750627155369731,"58":0.09250526444288451,"59":0.4244184698019345,"6":0.8364287240211193,"60":-0.3148405407879876,"61":0.8140244758445994,"62":0.37222449415570563,"63":0.428258308664206,"64":0.6341154210028371,"65":0.217223426007874,"66":-0.8423639637440115,"67":0.7916171758171334,"68":-0.749721366008483,"69":0.39245948667867075,"7":-0.7312094485305354,"70":-0.4483468123416853,"71":-0.5637452314828947,"72":0.2985186315500351,"73":-0.184320810571612,"74":-0.38402783288064257,"8":-0.22086001159703367,"9":-0.13738090151677024,"size":75},"41":{"0":-0.911800286873988,"1":0.3056672872096929,"10":-1.1329673146763506,"11":0.8617651905880915,"12":-0.25910641804254303,"13":-0.42962126529740297,"14":0.5921036408581803,"15":0.28383556627094353,"16":-0.8246754356517227,"17":0.7279567857905822,"18":-0.45296060060426663,"19":-0.47507980590227944,"2":0.250402539139988,"20":-0.19246192815942886,"21":-0.5558134708700826,"22":0.8412207403790397,"23":0.3686367381817069,"24":0.8326987517929626,"25":0.31572191534165495,"26":0.3585839411603137,"27":-1.098038880581073,"28":-0.0679470198675497,"29":-0.20884121219519636,"3":-0.9124307992797637,"30":0.3957365642262021,"31":0.6875655384990986,"32":-0.33765495773186505,"33":1.0081441694387652,"34":-0.4431812494277778,"35":0.1220813623462628,"36":0.46352305673390903,"37":-0.085240028077029,"38":0.5332285531174672,"39":0.44456984160893526,"4":0.7352140873439748,"40":0.600892361217078,"41":-0.01151707510605189,"42":-0.8079274880214848,"43":0.9335471663563969,"44":0.3379253517258217,"45":-0.37725821710867685,"46":-0.7174584185308402,"47":0.07522324289681696,"48":1.216051515243996,"49":-0.4677816095461896,"5":-0.0253804132206185,"50":-0.456736960966826,"51":-0.835535752433851,"52":0.4975603503524893,"53":-0.21089632862330993,"54":0.19965330973235265,"55":-0.44111270485549503,"56":-1.0717868587298192,"57":-0.2991760002441482,"58":0.45594775231177725,"59":-0.7323630481887272,"6":0.5311093478194525,"60":0.37554857020783045,"61":-0.6197802667317724,"62":-0.0718454542680137,"63":-0.8033491012298959,"64":-0.721752372814113,"65":0.8408514664143797,"66":0.985672780541399,"67":0.1107260353404335,"68":-0.9746641438032166,"69":-0.8737717825861386,"7":0.23273720511490198,"70":-0.41478621784112046,"71":-0.34593279824213363,"72":-0.3214368114261297,"73":-0.012375255592517011,"74":-0.7535489974669635,"8":0.9475435651722773,"9":0.8847694326609084,"size":75},"42":{"0":0.6712564470351262,"1":0.8156413464766383,"10":0.6460670796838275,"11":-0.18853968932157367,"12":-0.09825495162816247,"13":-0.4717990661336107,"14":0.48599383526108497,"15":-0.1065785699026459,"16":-0.9685250404370245,"17":0.5479659413434249,"18":0.4718436231574458,"19":-0.9952342295602269,"2":0.39751396221808477,"20":0.698454542680135,"21":0.3211926633503215,"22":0.03804864650410455,"23":-0.5162932218390455,"24":-0.2570152897732476,"25":1.0424549089022495,"26":0.15434247871333934,"27":0.721834162419507,"28":0.1077089754936369,"29":-0.5489205603198335,"3":0.47245155186620796,"30":1.0404998931852165,"31":0.5847437971129484,"32":0.4609222693563652,"33":-0.8940830713827941,"34":0.7089925840021977,"35":-0.5109347819452495,"36":0.5314957121494182,"37":-0.9939487899410993,"38":0.30685201574755094,"39":-0.6986144596697894,"4":0.14837916196172965,"40":0.2954637287514883,"41":0.3547666859950561,"42":-0.3118240913113802,"43":-0.29330851161229266,"44":0.09684560686056105,"45":0.08366100039674057,"46":0.20784264656514212,"47":-0.3685482345042274,"48":0.5226172673726626,"49":0.31198217719046634,"5":0.07098239082003224,"50":-0.1917709891048924,"51":-0.7714908291879032,"52":0.6939024018066963,"53":0.5977001251258883,"54":0.21043671987060178,"55":0.4890749839777827,"56":0.4346092104861597,"57":0.8173986022522668,"58":0.1804235969115269,"59":-0.19146153141880554,"6":0.9744151127658929,"60":0.03822199163792838,"61":0.6301449629200105,"62":0.541939146092105,"63":-0.8070955534531699,"64":-0.8251228370006413,"65":0.14206610309152495,"66":-0.3324893948179576,"67":0.7510318308053829,"68":0.6387804803613383,"69":-0.09166661580248428,"7":-0.6961394085512864,"70":-0.7616010010071118,"71":-0.6805163731803332,"72":0.1783642078920865,"73":-0.6523209326456496,"74":0.9250892666402161,"8":0.25710196234015903,"9":0.3492342905972469,"size":75},"43":{"0":-0.4332676168095952,"1":0.7701223792229988,"10":0.755421002838221,"11":-0.1950370799890132,"12":-0.3089022492141478,"13":0.20750999481185362,"14":-0.9655354472487557,"15":-0.6779241309854438,"16":-0.09746208075197613,"17":-0.8153263954588452,"18":-0.6712796411023283,"19":-0.9172289193395785,"2":-0.4729306924649792,"20":0.3680916776024655,"21":-0.16840845973082672,"22":-1.1016425061799975,"23":-0.8001525925473802,"24":1.1080538346507156,"25":-0.28929349650563135,"26":-0.753885921811578,"27":-0.9059486678670616,"28":-1.0868794824060781,"29":-0.12917996765037995,"3":0.3990655232398448,"30":0.14284859767448976,"31":-0.35748161259804123,"32":0.08422009949034083,"33":0.613558763389996,"34":0.5120474868007449,"35":1.028909573656422,"36":0.42643086031678135,"37":-0.38527848139896786,"38":1.131030610065002,"39":0.40626606036561136,"4":0.8415448469496744,"40":0.10539078951384019,"41":-0.3778917813653988,"42":0.48325022125919354,"43":0.2246223334452345,"44":-0.5495486312448503,"45":-0.19001800592059082,"46":0.6991088595233015,"47":0.6733732108523818,"48":-0.8080178228095347,"49":0.9722757652516251,"5":-0.6235389263588369,"50":-0.8987981810968367,"51":0.2503585924863428,"52":-0.4613183996093628,"53":-0.20418225653859068,"54":-0.869418012024292,"55":-0.4309360026856288,"56":0.3612689596240116,"57":0.9143113498336735,"58":-0.29089999084444657,"59":-0.06487197485274847,"6":0.49130283516953077,"60":-0.9913974425489062,"61":-0.6357127597888128,"62":-0.12394909512619413,"63":-0.11738273262733837,"64":0.9630756553849902,"65":0.24563982055116407,"66":-0.08656331064790806,"67":0.7425415814691619,"68":-0.5398535111545155,"69":-0.23474288155766515,"7":0.36811853389080434,"70":-0.4226148258919038,"71":0.25383709219641726,"72":0.040581072420422734,"73":0.8684957426679282,"74":0.03144383068330932,"8":0.6136259041108436,"9":0.37057588427381244,"size":75},"44":{"0":0.48895962401196297,"1":0.4989416180913728,"10":-0.08131290627765764,"11":-0.1844239631336406,"12":0.9143809320352809,"13":-0.23704458754234428,"14":-0.517554857020783,"15":0.3479970702230907,"16":0.6391088595233019,"17":-0.05665761284218892,"18":0.1163597521897029,"19":-1.0354716635639518,"2":-0.10362132633442196,"20":-0.5964311655018769,"21":0.9183477278969697,"22":-0.32912991729483976,"23":-0.032601092562639475,"24":-0.13845820490127264,"25":-0.39199499496444595,"26":0.3622363963744005,"27":0.9180651264992216,"28":-0.4618970305490284,"29":0.4072011474959563,"3":-0.0022833948789942092,"30":-0.42422193060090996,"31":-0.2485128330332352,"32":-0.10659932248908965,"33":0.21959654530472703,"34":-1.072568132572404,"35":-0.5217206335642554,"36":0.5214886928922383,"37":0.7466640217291789,"38":-0.15691824091311396,"39":0.7911288796655164,"4":0.7843873409222695,"40":0.6953788872951443,"41":-0.563976561784722,"42":0.7773589281899463,"43":-0.7684896389660345,"44":-0.7488839381084623,"45":0.896723532822657,"46":0.6745628223517571,"47":0.7548606830042411,"48":-0.24036744285409128,"49":-0.5540037232581562,"5":-0.40357554857020816,"50":-0.7292422254097101,"51":0.8470088808862575,"52":0.18001831110568528,"53":0.6364116336558124,"54":-0.8997338785973694,"55":0.03140354625080097,"56":-0.43616931669057285,"57":0.1265889461958677,"58":-0.05400921658986173,"59":-0.7783599353007595,"6":0.39249427777947304,"60":-0.9172240363780633,"61":0.9843525498214676,"62":0.3564708395641955,"63":-0.24391979735709687,"64":-0.5899551377910709,"65":0.7267879268776527,"66":0.3102664265877255,"67":-0.27006683553575217,"68":-0.8526682332834863,"69":0.5645173497726368,"7":-0.9369231238746296,"70":-0.8320145268105104,"71":0.28322153386028603,"72":-0.23143650624103546,"73":-0.2841071810052796,"74":-0.1845930356761374,"8":0.8879952391125214,"9":-0.5356407361064485,"size":75},"45":{"0":-0.26210760826441243,"1":-0.588891872920926,"10":0.25491500595110905,"11":-0.7091201513718071,"12":0.08399670400097634,"13":0.9035090182195497,"14":-0.4364970854823454,"15":-0.05675649281289105,"16":0.05844721823786121,"17":0.587696157719657,"18":-0.21756157109286778,"19":0.9493148594622638,"2":-0.22271797845393218,"20":-0.8009002960295419,"21":0.8469582201605271,"22":-1.0338743247779794,"23":0.2178557695242163,"24":-0.37701162755211026,"25":-0.21903927732169515,"26":0.9234766685995054,"27":-0.102410962248604,"28":-0.4612488174077577,"29":0.579731437116612,"3":0.6761088900418102,"30":-0.6027368999298076,"31":0.7825916318247016,"32":-0.30464613788262623,"33":0.5624689474166085,"34":-0.44915921506393686,"35":-0.6210992767113269,"36":-0.0327414777062289,"37":-0.6930356761375772,"38":-0.9735770744956821,"39":-0.1466005432294686,"4":0.6231299783318582,"40":-0.7465071565904738,"41":-0.20146488845484783,"42":-1.0372350230414744,"43":-0.3339811395611442,"44":0.2451246681112093,"45":0.1507101657155061,"46":-0.08197698904385524,"47":-0.6931424909207436,"48":-0.520473647267067,"49":0.4689028595843383,"5":0.4468330942716753,"50":0.383234962004456,"51":0.5792120120853295,"52":-0.5441663869136637,"53":0.908431043427839,"54":-0.8655623035370945,"55":0.3098428296761988,"56":0.6291189306314281,"57":0.7775347148045302,"58":0.08781090731528643,"59":-0.03171300393688781,"6":-1.2034125797296045,"60":-0.80177922910245,"61":0.37720267342143027,"62":-0.015117648854029934,"63":0.5349766533402514,"64":-0.15425275429548035,"65":-0.33086703085421315,"66":-0.22535782952360633,"67":0.6210870693075355,"68":-1.036781517990662,"69":-0.8375524155400251,"7":-0.7423444318979467,"70":1.0779131443220316,"71":-0.5794982757042143,"72":-0.4991717276528216,"73":0.2709921567430647,"74":0.7602044740134891,"8":0.04293404950102223,"9":0.3226325266273989,"size":75},"46":{"0":-0.004585100863674011,"1":-0.6240943632312997,"10":-0.5648585467085788,"11":-0.46004577776421396,"12":-0.06814111758781712,"13":0.20103640858180502,"14":-0.43170384838404524,"15":0.11345622119815654,"16":-0.5571849726859336,"17":0.22347117526779978,"18":0.045797296060060194,"19":0.5546592608416997,"2":0.6921469771416365,"20":-0.08526932584612568,"21":-0.3476180303353987,"22":-0.8481637012848294,"23":0.6573168126468705,"24":-0.7931614123966181,"25":0.968057496871853,"26":0.7522391430402545,"27":0.5447364726706746,"28":0.48795251319925487,"29":-0.01159276100955226,"3":-0.9797875911740469,"30":0.35955504013183986,"31":-0.3416846217230755,"32":0.8748912015137186,"33":0.8788250373851751,"34":-0.589367351298563,"35":0.0317831965086825,"36":0.41612537003692707,"37":-0.8536515396588029,"38":-0.37405377361369707,"39":-0.044087038789025514,"4":-0.6039875484481335,"40":-0.3590978728598894,"41":0.11749443037202044,"42":0.024097415082247477,"43":0.3218390453810236,"44":-0.7241926328318128,"45":0.732991729483933,"46":0.001088900418103514,"47":-0.6727079073458061,"48":0.6902420117801451,"49":-0.16259651478621773,"5":0.13759453108310193,"50":-0.29361247596667395,"51":-0.1063936277352213,"52":0.9905655079805891,"53":0.8596063112277591,"54":-0.4727890865810117,"55":0.19850276192510752,"56":-0.15315286721396532,"57":0.13999877925962093,"58":-0.12888210699789435,"59":0.691839350566119,"6":-0.34120792260505994,"60":0.4906472975859853,"61":0.4610779137546924,"62":0.3400549333170569,"63":0.5199926755577261,"64":-0.6735190893276766,"65":-0.3626966154972992,"66":0.7652143925290689,"67":0.5454139835810418,"68":0.2587743766594434,"69":-0.43913510544145024,"7":0.03967101046784857,"70":-0.5247547837763602,"71":-0.3125638599810786,"72":-0.5061122470778526,"73":0.2590734580523081,"74":0.5682998138370925,"8":-0.22277413251136804,"9":-0.31721121860408336,"size":75},"47":{"0":0.8908029419843146,"1":0.8601019318216496,"10":0.6930552079836421,"11":-0.9718314157536552,"12":-0.09052461317789222,"13":-0.9821942808313232,"14":0.07865657521286626,"15":0.7904635761589401,"16":-0.26449598681600367,"17":-0.6300424207281713,"18":0.1847456282235174,"19":0.4844453260902739,"2":-0.23971922971282136,"20":0.8789782403027434,"21":-0.6813354899746699,"22":-0.4035090182195504,"23":0.7512552262947484,"24":-0.3349101229895931,"25":0.20197637867366527,"26":-1.0224958037049465,"27":-0.4722446363719592,"28":-1.079188818018128,"29":-0.6738700521866502,"3":0.6197424237800209,"30":-0.7323648792992951,"31":-0.8228583635975215,"32":1.008606830042421,"33":0.8490188299203469,"34":0.479587389751884,"35":1.2444740134891796,"36":0.24411450544755423,"37":-0.6892739646595649,"38":0.10970122379222995,"39":0.10883144627216389,"4":0.5077346110415972,"40":0.5244221320230722,"41":0.35540513321329387,"42":-0.22030091250343342,"43":0.32408337656788855,"44":0.4324112674336986,"45":0.4829590746787927,"46":0.9650074770348217,"47":-0.5622888882106998,"48":-0.7167577135532699,"49":-0.7263686025574504,"5":-0.654324777977843,"50":-0.013386638996551577,"51":0.5610797448652602,"52":0.08043580431531709,"53":0.7260737937559126,"54":0.44239020966215997,"55":0.10024353770561842,"56":0.6262672811059905,"57":0.189731742301706,"58":0.7537748344370855,"59":1.0209155552842804,"6":-0.6957359538560139,"60":-0.4458424634540851,"61":-0.3461317789239181,"62":-0.13533371990112011,"63":-0.26369884334849064,"64":0.20840357676931012,"65":-0.7067073580126354,"66":-0.6113126010925628,"67":0.3515799432355726,"68":-0.4828022095400859,"69":-0.5468825342570268,"7":0.4763353373821225,"70":-0.8995818964201792,"71":0.7537565233314004,"72":0.46674886318552156,"73":-0.9072646259956654,"74":0.2877016510513629,"8":-1.0996655171361425,"9":-0.5829413739432967,"size":75},"48":{"0":0.3403527939695429,"1":0.400932645649586,"10":0.06946073793755884,"11":0.18238593707083356,"12":0.14004394665364525,"13":-0.6447077852717675,"14":-0.06742454298532063,"15":-0.1715988647114476,"16":-0.431856440931425,"17":-0.7634290597247235,"18":-0.660606097598194,"19":0.7128800317392501,"2":-0.7286831263161115,"20":0.027690054017761687,"21":-0.3854872280037848,"22":0.8500033570360426,"23":-0.2932847071749022,"24":0.613895687734611,"25":-0.4409540086062197,"26":-0.5731778923917357,"27":0.124382457960753,"28":-0.6030249946592604,"29":-0.5605371257667772,"3":-0.2590936002685629,"30":-0.3373143711661125,"31":-0.7934897915585793,"32":-0.5013660084841455,"33":-0.020186773277993196,"34":0.7387621692556534,"35":-0.6101651051362653,"36":-0.6725162511062971,"37":-0.3231537827692489,"38":-0.8647370830408634,"39":0.46031678212836075,"4":0.5767906735435043,"40":0.3654048280281985,"41":-0.512582171086764,"42":-0.7439399395733517,"43":0.06518448438978226,"44":0.05476058229316067,"45":-0.029933164464247562,"46":-0.47297097689748796,"47":-0.698471022675253,"48":0.819534897915586,"49":0.4884878078554637,"5":-0.4263258766441849,"50":0.5115713980529186,"51":-0.46382274849696326,"52":-0.8706192205572684,"53":0.8625861384929957,"54":-0.6578063295388649,"55":0.7941453291421249,"56":0.3002453688161876,"57":0.732970976897489,"58":0.5521231727042457,"59":0.09094637897885047,"6":-0.5846668904690685,"60":0.5808215582750944,"61":-0.9739494003112885,"62":0.06498794518875682,"63":-0.8532377086703093,"64":0.7970799890133364,"65":-0.554884487441634,"66":0.546818445387126,"67":0.13638233588671517,"68":-0.9137876522110661,"69":-0.005986510818811925,"7":0.7952439954832609,"70":0.9597222815637693,"71":0.41279824213385424,"72":0.9709298989837333,"73":-0.8804461806085389,"74":-0.5408374279000212,"8":0.3544499038666953,"9":0.740696432386242,"size":75},"49":{"0":0.40059755241554035,"1":-0.8953196813867607,"10":-0.4606884975737784,"11":-0.10052247688222919,"12":-0.8076277962584314,"13":0.5158049256874295,"14":0.4133317056794949,"15":-0.20451002533036275,"16":0.11059846797082423,"17":-0.27652211066011545,"18":-0.5988756981109036,"19":0.10564043092135372,"2":0.9396447645497003,"20":0.6004589983825193,"21":1.0297482222968222,"22":0.5442805261391026,"23":-0.31631885738700527,"24":0.6463362529374084,"25":-0.014553666798913734,"26":0.737521897030551,"27":-0.8987804803613408,"28":0.7250599688711203,"29":-0.03566270943327118,"3":-0.5038612018189037,"30":0.5671443830683316,"31":-0.1815778069399093,"32":0.6598956266975922,"33":-0.9136112552262937,"34":0.32418591875972746,"35":0.34900112918485043,"36":-0.11035187841425861,"37":-0.5650025940733053,"38":-0.08113101596118039,"39":0.6413867610705891,"4":-1.0456257820368058,"40":-0.4096774193548388,"41":-0.4225135044404433,"42":-0.2770030823694578,"43":-0.18251106295968553,"44":0.32444105349894675,"45":-0.7580346079897469,"46":0.9259651478621794,"47":0.7496511734366892,"48":-0.32496169927060764,"49":-0.7801055940427867,"5":-0.9389996032593775,"50":-0.009416791283913916,"51":0.6369646290475165,"52":-0.319335306863613,"53":0.7272023682363361,"54":-0.36431104464857983,"55":-0.656395153660694,"56":0.7467067476424454,"57":0.6539445173497725,"58":-0.12886440626239817,"59":-0.8612677388836332,"6":-0.398428907132176,"60":0.15041657765434768,"61":-0.4447901852473529,"62":0.37163243507187044,"63":0.8397705008087396,"64":0.33530930509353885,"65":-0.6872524185918769,"66":1.0353147984252449,"67":-0.19911557359538565,"68":0.5709891048921166,"69":0.9200878933072908,"7":-0.754924771874142,"70":-0.5256080813013093,"71":0.047728507339701416,"72":-0.46476210821863384,"73":-0.8385784478286084,"74":0.6028882717368081,"8":-0.160136722922453,"9":-0.12421033356730879,"size":75},"5":{"0":0.3373119296853542,"1":0.3994720297860653,"10":-0.9523673207800534,"11":0.5032978301339771,"12":0.6344895779290138,"13":0.4302786339915155,"14":0.2441975157933286,"15":-0.169285561693167,"16":-0.6304239020966206,"17":-0.5130991546372871,"18":0.284887234107486,"19":-0.873413495284891,"2":0.18078310495315397,"20":0.13769157994323522,"21":-0.5535990478225051,"22":0.24279427472762175,"23":-0.08006103701895215,"24":-0.15225135044404425,"25":0.3731064790795617,"26":0.511493270668661,"27":0.33066438795129244,"28":-1.1021491134372987,"29":0.15894955290383636,"3":-1.0245789971617787,"30":0.5351676992095722,"31":0.4644373912778092,"32":-1.004694357127596,"33":0.7093423261207915,"34":1.017583544419692,"35":-0.44848475600451687,"36":0.42563066499832103,"37":-0.7403039643543806,"38":-0.38415051728873617,"39":1.0497506637775815,"4":-0.26989471114230756,"40":0.7076558732871482,"41":-0.2643018890957368,"42":0.4057484664448985,"43":0.7939957884456921,"44":-0.3693307290871914,"45":0.5673494674520099,"46":0.0441633350627154,"47":0.7729197058015681,"48":-0.030404370250557103,"49":0.1680318613238926,"5":0.546660969878231,"50":0.8563664662617878,"51":-0.08609881893368339,"52":-0.12559160130619243,"53":0.011230811487166942,"54":-0.28812768944364797,"55":0.23797784356212046,"56":-0.4694405957213041,"57":0.5540525528733181,"58":1.1184405041657772,"59":-0.9740922269356366,"6":0.9057380901516777,"60":0.006460768456068506,"61":-0.9795239112521753,"62":-0.36323740348521405,"63":-0.5239161351359599,"64":0.3837250892666405,"65":-0.42484328745384137,"66":-0.9143925290688805,"67":0.7563725699636823,"68":0.6871108127079065,"69":-0.8820361949522385,"7":0.7731504257332074,"70":0.020949125644703442,"71":0.4505117954039128,"72":0.21044404431287547,"73":-0.3473726615192113,"74":0.7368706320383303,"8":-0.9141532639545901,"9":-0.5850105288857689,"size":75},"50":{"0":-0.6817542039246811,"1":0.5543913083285016,"10":-0.6039118625446317,"11":-0.23074312570574113,"12":-0.9127634510330508,"13":-0.7140842921231726,"14":1.056667989135411,"15":-0.41014252143925267,"16":0.7973229163487665,"17":-0.01629016998809805,"18":-0.45071138645588604,"19":0.525537278359325,"2":-0.8435810419019125,"20":0.45515732291634864,"21":-0.8994311349833666,"22":-0.6072750022888892,"23":-0.3642298654133731,"24":-0.08637287514877791,"25":-0.2965526291695913,"26":0.11110873744926315,"27":0.07375835444196903,"28":1.0978185369426572,"29":-0.31633045442060637,"3":-0.8521707815790284,"30":-0.7892300180059206,"31":-0.2004266487624747,"32":1.0499246192815943,"33":0.8675502792443605,"34":-0.06684957426679275,"35":0.627281716360974,"36":-0.18741416669209882,"37":-0.9081783501693782,"38":0.41380046998504616,"39":-0.06747703482161944,"4":-0.3864638203070161,"40":-0.42811243018890976,"41":0.31973937192907514,"42":-0.6204864650410483,"43":0.4060200811792345,"44":1.1413885921811575,"45":0.6335551011688592,"46":0.31491439558091977,"47":-0.7200640888698989,"48":0.2881478316599012,"49":-0.4390942106387521,"5":-0.14262031922360943,"50":-0.03140171514023263,"51":-0.8672176274910737,"52":0.30312143314920514,"53":-0.8494070253608804,"54":0.9517954039124739,"55":0.9596093630787066,"56":0.5150749229407625,"57":0.4734440137943664,"58":0.5992492446668903,"59":0.5535599841303752,"6":0.400946684163946,"60":0.13161534470656416,"61":-0.5543089083529168,"62":-0.5751658680990032,"63":0.4448615985595265,"64":-0.47310342722861476,"65":0.6105533005768007,"66":-1.117844782860805,"67":0.18366527298806712,"68":-0.32185857722708866,"69":-0.48604022339548897,"7":0.7515720084231082,"70":-0.05812616351817386,"71":-0.4669270912808627,"72":-0.04869045075838509,"73":0.6911789300210577,"74":0.39671132541886645,"8":0.3974962614825894,"9":-0.038104190191351056,"size":75},"51":{"0":-0.9817120883816024,"1":-0.26104800561540553,"10":-0.938491775261695,"11":-1.308714865565968,"12":-0.44786889248329104,"13":-0.6607055879390854,"14":-0.4515976439710686,"15":-0.8682869960631123,"16":-0.03823725089266649,"17":0.6753434858241527,"18":0.17287759025849142,"19":0.27933896908475003,"2":0.3203796502578811,"20":1.0619409772026729,"21":-0.7499398785363341,"22":0.411349833674123,"23":0.7900686666463201,"24":0.647887203588977,"25":0.08793664357432757,"26":-0.279480574968718,"27":0.7648884548478647,"28":-0.17583666493728453,"29":0.9530472731711782,"3":0.7662550737022005,"30":0.8744364757225249,"31":-0.35700247199926766,"32":0.909783623767815,"33":-1.0606549272133554,"34":1.09854915005951,"35":-0.5556938383129365,"36":-0.9648695333719899,"37":-0.7763615833002718,"38":-0.9827875606555381,"39":0.252486953337199,"4":0.8188384655293429,"40":0.15917661061433752,"41":-0.8187859736930451,"42":-0.6693374431592765,"43":0.489316690572832,"44":-0.8102005066072584,"45":-0.43321573534348606,"46":-0.30283577990050925,"47":0.7323197119052706,"48":0.13756584368419436,"49":0.501351969969786,"5":0.3690200506607254,"50":-1.0022479934080024,"51":0.16609515671254607,"52":0.9051271095919677,"53":0.1862562944425795,"54":-0.8811017181920836,"55":0.8794164860988191,"56":0.8618482009338663,"57":-0.8139768669698171,"58":0.789496749778741,"59":-0.04114932706686612,"6":0.6192797631763673,"60":-0.0920358897671437,"61":-0.6795831171605579,"62":-0.9112259285256512,"63":0.010197454756309544,"64":0.6150370799890136,"65":0.7681948301644952,"66":-0.49876766258736,"67":-0.8607965330973244,"68":-0.35104281746879523,"69":0.48222357860042087,"7":-0.06852809228797271,"70":-0.665481734672079,"71":-0.21767204809717086,"72":0.04222540971098972,"73":0.7794738608966327,"74":-0.923239844965972,"8":0.3885171056245614,"9":-0.4118601031525623,"size":75},"52":{"0":0.29980285042878513,"1":0.6005523850215153,"10":0.6087722403637804,"11":-0.49635181737723894,"12":-0.6909494308297973,"13":0.778804284798729,"14":0.06268562883388747,"15":-0.1398864711447494,"16":0.8359331034272278,"17":0.2578447828608053,"18":-0.03653614917447436,"19":0.6350059511093487,"2":0.04416699728385245,"20":0.6663905758842732,"21":0.6803045747245695,"22":0.7571666615802493,"23":1.0233088167973874,"24":0.41719107638782954,"25":-0.7484981841486854,"26":0.5409790337839891,"27":-0.007827997680593243,"28":0.10813623462630079,"29":0.6067165135654771,"3":-0.7901669362468345,"30":-0.5738749351481671,"31":0.019672841578417425,"32":0.45304422132023126,"33":-0.5367766350291454,"34":0.3243256935331273,"35":0.1176616718039491,"36":-0.38688375499740607,"37":-0.9751744132816558,"38":0.2213092440565206,"39":0.1382219916379282,"4":-0.41927488021485004,"40":-0.93492843409528,"41":-0.8767632068849758,"42":-0.7830469679860841,"43":0.5772960600604261,"44":0.034318674275948334,"45":-0.6367247535630363,"46":0.4742851039155248,"47":0.313015533921323,"48":0.5844917142246775,"49":-0.841587572862941,"5":0.771382793664357,"50":0.4380944242683184,"51":-0.784994659260843,"52":-0.7244587542344435,"53":-0.41720023194067224,"54":-0.8756700338755455,"55":0.5803051850947593,"56":0.28072389904477046,"57":0.765251014740439,"58":0.9026227607043669,"59":-0.06759117404705978,"6":-0.47165684987945156,"60":-0.3268263801995914,"61":-0.2673628955961793,"62":-0.6291543321024206,"63":-0.49950987273781616,"64":-1.1043708609271525,"65":-0.29173131504257344,"66":-1.1136442152165273,"67":-0.9668562883388779,"68":-0.5782085634937587,"69":-0.6889706106753745,"7":0.5345530564287241,"70":0.5513638721884832,"71":0.8853566087832266,"72":-0.3975829340495013,"73":0.023299661244544592,"74":0.7366252632221445,"8":0.7131785027619242,"9":-0.10010864589373444,"size":75},"53":{"0":0.7525766777550585,"1":-0.17350749229407633,"10":0.05116306039613017,"11":0.7941355632190925,"12":-0.11057893612475983,"13":-0.2914523758659628,"14":0.8238789025543998,"15":-0.9442146061586363,"16":0.6987292092654196,"17":0.11695974608600107,"18":0.4515091402935871,"19":0.589652394177068,"2":0.6510928678243351,"20":-0.2783819086275826,"21":0.11044221320230721,"22":0.6570915860469371,"23":-0.6042121646778759,"24":0.7502298043763542,"25":-0.6245002594073296,"26":-0.4059364604632714,"27":0.15595812860499883,"28":-0.526429029206213,"29":0.382109439374981,"3":0.8636945707571635,"30":-0.8207995849482727,"31":0.35969908749656615,"32":-0.8164610736411624,"33":0.25332071901608333,"34":0.009093295083467979,"35":-0.3001776177251509,"36":-0.5462331003753778,"37":-1.048723410748618,"38":0.46685445722830865,"39":-0.7626972258674879,"4":0.029889217810602282,"40":0.3103018280587169,"41":-0.5683901486251409,"42":-0.49480208746604826,"43":-0.1230396435438094,"44":-0.8309945982238229,"45":-0.2242359691152681,"46":-0.06765343180639068,"47":-0.14424268318735337,"48":-0.42417859431745364,"49":0.43525437177648213,"5":0.7893374431592752,"50":-0.45418988616595873,"51":0.4844941557054355,"52":1.0468379772331926,"53":-0.3635071871089817,"54":-0.257486495559557,"55":-0.11573473311563458,"56":1.0237788018433174,"57":-0.12108340708639796,"58":-0.11058442945646527,"59":-0.9012018189031651,"6":0.5257551805169839,"60":0.7419727164525286,"61":0.31717520676290084,"62":0.5217792291024504,"63":0.7044166386913664,"64":0.4857490768150886,"65":-0.4013800469985048,"66":-0.5443818475905637,"67":0.11797845393230992,"68":-0.9711270485549482,"69":0.7077999206518747,"7":0.06648518326364906,"70":0.5601641895809802,"71":-0.5347056489761037,"72":0.2956975005340739,"73":0.26807885982848584,"74":0.5759916989654221,"8":0.6919870601519827,"9":-0.9415735343485829,"size":75},"54":{"0":-0.33028839991454834,"1":0.4587096774193545,"10":-0.23088900418103545,"11":-0.3913553270058292,"12":-0.47047029023102566,"13":0.39022186956389054,"14":0.13322672200689722,"15":0.4437336344492934,"16":0.8498245185705118,"17":0.7706399731437119,"18":-0.32292123172704285,"19":-0.887332377086704,"2":-0.34646809289834374,"20":-0.1448146000549334,"21":0.9156859035004739,"22":0.3226911221655938,"23":0.6202618488113038,"24":0.719627674184392,"25":-0.6592095706045716,"26":0.051994384594256295,"27":0.8953373821222573,"28":-0.3685348063600571,"29":0.6350694296090579,"3":-0.23310708944975111,"30":0.7171086764122447,"31":0.4458076723532824,"32":0.7355314798425246,"33":0.5591845454268007,"34":0.26953154087954356,"35":0.9750163274025692,"36":-0.5524826807458728,"37":0.34766319772942295,"38":-0.060053102206488386,"39":0.4076680806909388,"4":-0.7162407300027477,"40":-0.917835016937773,"41":0.9898629718924533,"42":0.039917600024415,"43":0.23064790795617532,"44":-0.22409314249092102,"45":-0.8929947813348791,"46":-0.40420850245674034,"47":0.2349259926145203,"48":1.0451313821832933,"49":0.8009930722983496,"5":0.929726248970001,"50":-0.3525724051637321,"51":0.5851918088320576,"52":-0.23722220526749557,"53":-0.0888576921903137,"54":0.8618445387127298,"55":0.6636231574449911,"56":-0.8674892422254092,"57":-0.983662831507309,"58":-0.04623981444746254,"59":0.11331095309305085,"6":-0.059869380779442566,"60":-0.6169170201727336,"61":-0.4634241767632068,"62":0.4041468550675989,"63":-0.7118686483352155,"64":-0.49651783806878885,"65":0.4726041444135873,"66":-0.9127555162205861,"67":0.595406353953673,"68":0.3807220679342021,"69":-1.0419653920102554,"7":-0.8505276650288404,"70":-0.060864284188360505,"71":-0.7632868434705646,"72":0.8606292916653946,"73":-0.17872981963560927,"74":-0.06328745384075454,"8":0.3038135929441207,"9":-0.3592126224555197,"size":75},"55":{"0":-0.3048799096652112,"1":-0.9663655507065027,"10":0.1714279610583819,"11":-0.23123752555925214,"12":-1.1622388378551582,"13":-0.6493832209234897,"14":0.5433881649220249,"15":0.9390734580523084,"16":0.1462459181493574,"17":0.2537009796441544,"18":-0.19036713766899632,"19":-0.5091189306314277,"2":-0.8669551683095792,"20":-0.1920426038392284,"21":0.06938383129367948,"22":-0.6977190466017639,"23":-0.8730924405652031,"24":-0.5819977416302978,"25":-0.1964677877132481,"26":-0.9692849513229768,"27":-0.38143375957518194,"28":-0.615728629413739,"29":-0.15399700918607112,"3":0.3402661214026305,"30":0.18379161961729737,"31":0.7035444196905419,"32":0.6999334696493426,"33":0.2195593127231666,"34":-0.411647694326609,"35":-0.623642078920866,"36":0.6160722678304392,"37":0.9047822504348886,"38":0.059044160283211765,"39":-0.2966808069093909,"4":-0.687823725089268,"40":0.7832624286629842,"41":-0.13753837702566626,"42":-0.603274636066774,"43":-0.7675801873836483,"44":0.4059559923093358,"45":-0.12580156865138686,"46":0.9313260292367319,"47":0.1900296029541917,"48":-0.6224457533494058,"49":-0.9769798883022559,"5":-0.6127884762108217,"50":0.805037995544297,"51":-0.5046198919644772,"52":-0.458719443342387,"53":-0.3051698355052336,"54":0.37289101840266137,"55":0.02476699118015082,"56":-0.11590380565813165,"57":-0.01776543473616756,"58":0.2766063417462686,"59":-0.24471083712271494,"6":-0.8642249824518567,"60":-0.6507492294076355,"61":-0.20815149388103876,"62":-0.13274391918698708,"63":-0.6993499557481607,"64":-0.28611285744804277,"65":-0.0836286507766961,"66":0.11423200170903634,"67":-0.7497628711813719,"68":-0.6618884853663747,"69":0.5727353740043338,"7":0.33017365031891827,"70":0.6959282204657122,"71":-1.0386443678090755,"72":0.0512619403668325,"73":-0.7127964110232875,"74":-0.8512625507370213,"8":0.323506576738792,"9":-0.45587450788903533,"size":75},"56":{"0":0.0779711294900356,"1":-0.23733756523331373,"10":-0.05195776238288513,"11":0.19015961180456017,"12":1.0732450331125842,"13":-0.03384380626850193,"14":-0.2705191198461868,"15":-0.19200903347880485,"16":-0.9175725577562791,"17":0.4816968291268643,"18":-0.5222669148838762,"19":0.9827924436170552,"2":-0.4302761925107576,"20":-0.3751628162480541,"21":-0.5825440229499194,"22":0.3933884701071201,"23":0.43315530869472385,"24":-0.19568224127933598,"25":0.2613660084841456,"26":0.6521994689779355,"27":-0.7071639149143956,"28":0.5749839777825249,"29":-0.45428388317514645,"3":0.11059236426892907,"30":-0.24587298196356133,"31":0.3103604235969115,"32":0.7468105105746645,"33":-0.6663002410962244,"34":-0.6699905392620608,"35":0.9129837946714703,"36":-0.1010406811731316,"37":-0.39489425336466577,"38":0.5483773308511606,"39":0.43135471663563996,"4":-0.254975432599872,"40":-0.3293142490920745,"41":-0.21121616260261847,"42":0.2831928464613786,"43":0.3812091433454394,"44":-0.25891048921170706,"45":-0.01220740379039906,"46":-0.17590685750907914,"47":-0.4617047639393295,"48":0.529817194128239,"49":0.22302377391888156,"5":-0.9781389812921534,"50":0.5696646015808589,"51":0.2028192999053926,"52":0.8487179174169127,"53":0.6622278511917462,"54":-0.41407574694051963,"55":-0.23105624561296415,"56":0.8172112186040843,"57":0.21993652150029,"58":-0.9293325601977597,"59":-0.08247932370983019,"6":0.35718863490707126,"60":0.7309311197241123,"61":0.5959178441724912,"62":0.865190588091677,"63":0.10561967833490982,"64":0.09653370769371634,"65":-0.004018677327799517,"66":-0.3060328989532147,"67":-0.3485103915524771,"68":0.622639240699484,"69":-0.27558946501052917,"7":-0.1855085909604178,"70":0.975149388103885,"71":0.6499105807672352,"72":-0.34133060701315354,"73":0.1714615314188053,"74":0.04093691824091288,"8":0.23181798760948547,"9":-0.8846900845362705,"size":75},"57":{"0":-0.32571916867580225,"1":-0.6865913876766274,"10":0.7907522812585847,"11":-0.8644160283211757,"12":0.08673055207983627,"13":-0.05638660847804203,"14":-0.02066835535752443,"15":-0.5381243324076053,"16":-0.16106753746147046,"17":0.6924076052125603,"18":-0.8176354258858014,"19":-0.1914413892025517,"2":0.044162724692525974,"20":0.37993835261085823,"21":0.8211865596484261,"22":-0.5021704763939339,"23":-0.8131022064882352,"24":-0.7195684682760097,"25":-0.47675160985137477,"26":-0.6517795342875464,"27":0.9623273415326397,"28":0.8659883419293799,"29":0.3788518936735128,"3":0.4511630603961299,"30":0.20428907132175697,"31":0.008053834650715668,"32":0.35908322397534115,"33":-0.10859523300881982,"34":-0.6987188329721986,"35":-0.15808954130680267,"36":0.15602099673451938,"37":-0.7559123508407867,"38":0.9941251869258712,"39":-0.6941636402478105,"4":-0.4376970732749412,"40":-0.9479262672811062,"41":0.6283822138126789,"42":0.31721366008484164,"43":0.1904275643177586,"44":0.6927817621387364,"45":-0.38521378215888014,"46":0.8962920010986657,"47":0.7257142857142865,"48":-0.8727402569658499,"49":-0.5412787255470443,